#ifndef HLS4NM_TB_DATA_WEIGHTS_H_
#define HLS4NM_TB_DATA_WEIGHTS_H_

#include "tb.h"
const weight_t WEIGHTS[64][128][9] = {
{{33, 21, -15, -2, 7, 123, -21, 62, 42},{97, 112, -36, 81, -37, -28, 37, 101, 7},{-26, -15, 62, 53, 11, 23, -64, 46, 124},{-84, -17, -84, 109, -112, 65, -34, 15, -55},{-39, 122, -121, -124, 92, 119, -32, 45, -45},{68, -46, -72, -53, 56, 41, -119, -18, -75},{33, 46, 99, 29, 90, -45, 73, 71, -29},{11, -91, 114, 84, -1, 109, 91, 3, 73},{83, 99, -10, -90, 39, 72, -34, 114, 0},{-121, 124, 110, -68, 29, 28, -96, -70, -10},{-13, -124, -67, 86, 15, -29, 73, -29, 98},{54, -66, -27, -1, -111, -56, 117, -73, 111},{61, 21, 97, -67, 29, 93, -84, 89, -6},{72, 121, 53, -65, -20, 57, -4, -61, -56},{95, -116, 43, 65, 66, 105, -90, -63, 123},{-18, -74, -78, -35, 115, 72, -65, -80, -27},{-100, -36, -66, 23, -91, -72, -52, -28, 36},{-123, 96, 103, -51, 64, 115, 120, 1, 53},{97, 40, 118, 92, -106, -84, -113, -12, -97},{87, 51, -48, -68, 79, 44, -6, -26, 81},{50, 50, -75, -41, 55, -106, -66, -124, 86},{-78, 124, -41, 103, 94, 127, 94, 58, -106},{-118, 73, 10, -86, 32, -67, -6, 92, -116},{-90, -41, -13, 120, -119, -91, -83, -32, 93},{-61, 31, 97, -103, 81, 94, -15, 56, 60},{-16, 22, -10, 6, 33, -64, -112, 75, 96},{-51, -59, 61, -38, -21, -108, 77, -29, -99},{114, 17, -2, 79, 84, -99, 49, 110, 110},{15, -33, 38, -53, 79, -67, 65, -42, 94},{-127, -26, 41, 98, 52, 110, 31, -114, -39},{51, 91, 61, 80, 77, -50, -50, 29, -94},{-21, -50, -112, -39, 93, -17, -128, -88, -65},{-67, 105, 21, -101, 107, 123, 68, 77, 47},{50, -20, 61, -117, -97, 24, 72, 111, -26},{-106, -66, -125, -71, 41, -47, -55, -125, -82},{57, -125, -42, 120, -64, -65, 13, -37, -86},{8, -97, 119, -72, 81, -29, 117, 92, 2},{14, 37, -14, 116, 59, 48, 119, 116, -39},{-56, -66, -36, -10, 119, -33, 76, 111, 31},{-117, -4, 122, -74, -124, -103, -83, -68, 106},{17, -78, 71, -109, 64, -20, 5, 52, -89},{-75, 43, -100, 15, 115, -38, 107, -23, -47},{-53, -75, -64, 106, -64, 60, 101, -10, 64},{126, 36, 125, 105, -75, -81, 48, -56, 111},{-100, 78, 35, -61, -125, -50, -33, 18, -63},{57, -2, 42, -118, 73, 95, -54, 51, -97},{-122, 24, 22, 71, 23, -70, 68, 0, -17},{115, -80, 55, 98, -52, 5, 5, 15, 9},{83, 111, -101, -108, 40, 25, 62, 51, -30},{29, 125, -106, 60, -124, 46, -46, 75, -59},{12, 15, 69, 123, 2, 117, 51, -28, -63},{-72, 105, 81, 65, 60, 64, 93, 80, -24},{-10, 14, -101, 89, -85, -103, 111, 103, -99},{29, -70, 104, 99, 70, -9, 40, 66, 121},{30, -11, -35, 95, 45, -58, 48, -17, -126},{-16, -52, 82, 89, 66, -32, 116, 27, 11},{-115, 10, -14, -86, -88, 44, -110, -117, -13},{9, 51, -75, 2, -47, 42, 95, -79, -41},{-91, 97, 70, -89, -46, -110, 121, -85, 85},{-39, -97, -16, 100, -83, 123, -41, -41, -93},{-125, -22, -82, -10, 115, 97, 43, -10, -77},{-43, -43, -28, 45, -5, -59, -13, 34, 23},{6, 28, 66, -37, 117, 98, 75, 90, -113},{70, -79, -26, 105, -76, 80, -105, 43, 68},{121, -42, -70, -84, 44, 15, 16, -39, -118},{85, 76, 45, -19, -46, -55, -81, 45, -66},{-111, -7, -104, -96, -65, -55, 7, -87, -2},{-41, -64, -87, -101, -71, -1, -43, -27, -85},{101, 117, 4, 111, 75, -47, 28, -72, 35},{101, -25, -47, -92, -7, 74, -68, 25, -119},{6, -96, -78, -124, -8, -13, -83, 19, 44},{44, 105, -110, 88, 78, -121, -36, 61, 82},{45, -38, -118, -47, -65, -14, 34, -29, 107},{-20, 32, 4, -11, -90, 37, 40, -86, -99},{-101, -41, 48, 71, -125, 25, 89, 91, -25},{97, -72, -91, 51, 101, -1, 62, -74, 62},{-80, 88, -94, -101, -60, 66, 31, 58, 104},{-60, -30, -110, -31, -3, -23, -110, -60, -20},{43, -98, -56, -109, 127, 0, -72, 50, -27},{55, -16, 28, -11, 32, -12, 23, 59, 57},{-39, -37, -13, -63, 31, 85, -45, -127, -46},{60, -109, 22, -87, 62, 52, -15, 81, 51},{113, -119, -26, -42, 64, 86, 114, -74, -9},{-25, 77, -78, -96, -89, 13, 19, -24, -83},{-24, 60, -82, 58, -8, -63, -48, 33, 127},{-123, -110, 81, 56, -125, 90, -98, -38, 27},{117, -52, 81, -20, 51, 30, 30, 83, 69},{-84, -26, -82, -39, 78, 106, 7, 8, -30},{72, 89, -124, 71, 94, -106, 24, 22, -102},{-13, 53, -12, -114, 42, 64, 95, -106, -12},{-3, 52, -57, -61, 96, 46, -15, -71, -4},{-37, 64, -123, 61, 8, 94, 65, -48, 60},{88, 104, -46, 114, -37, -121, -26, -23, 49},{-90, -56, 71, 26, 70, -4, 98, -119, -36},{16, -6, 22, -116, 85, -42, -111, 18, 95},{111, -44, -81, 43, -84, -105, 126, -98, -13},{-123, 4, 92, 55, 42, -91, -2, -59, 107},{122, -89, 116, -41, 55, -18, 109, 67, -61},{-61, 85, 85, -94, 68, -87, -47, -16, -43},{-23, -18, -13, 92, -13, 119, 56, -86, 34},{93, 41, 103, 72, 35, -114, 60, 122, 69},{-86, 103, 8, -19, -85, -35, -61, -51, -94},{-20, 31, 18, 66, -120, -128, -75, 100, -13},{-83, 28, 30, 79, -6, -57, 54, -62, 106},{68, 127, 101, 9, -87, 76, -111, 23, 119},{-17, 90, -59, 17, -58, 100, -93, -120, 108},{-93, -66, 80, 22, -21, -20, -76, -70, 102},{-5, 112, -87, -26, 52, -88, -53, -67, -47},{-105, -50, 104, -113, 61, 66, -44, -50, -119},{-72, -15, -111, -92, 20, -49, 116, -85, 58},{-32, -33, 116, -57, 91, 100, -16, -63, 24},{24, 12, 85, 105, 35, -92, 82, 50, 97},{20, -122, -80, 29, -66, 33, 47, -30, -74},{126, -42, -31, 57, 55, 64, 45, 126, 27},{18, -18, 92, -86, -122, -24, -128, 111, -116},{-92, 65, 62, -123, -42, 69, -75, 115, -125},{87, 34, -26, -115, 33, 60, -18, -38, -13},{-82, -121, -15, 74, 25, 95, 38, 68, 101},{-113, 68, 85, -101, 104, 22, 89, 109, 108},{30, -93, 96, 34, 122, 2, -120, -121, -93},{68, -11, -3, -72, 35, 5, 41, -19, -98},{9, -108, 98, -18, -93, 38, -61, -66, 14},{90, -105, -4, 70, 54, 31, 38, -40, 25},{-87, -32, 32, -52, -92, -107, 74, -36, 56},{-49, -122, -90, -19, 15, -70, -48, 125, -35},{118, -63, 27, 5, -101, 50, -127, 97, -24},{32, 8, 64, -71, 49, -96, 89, 125, -59},{110, 71, 33, 38, -106, 39, 76, 4, -74}},{{-122, 84, -76, -29, 74, -11, 126, -49, 16},{49, -48, -15, -103, 112, 121, 90, -87, 42},{122, -126, 40, -65, 112, -17, 97, 23, 6},{8, -29, -118, 63, -22, 94, 115, 77, 40},{-24, 76, 120, 120, -3, -56, -23, 22, -71},{-29, -16, -30, -115, -21, -27, 53, 42, -43},{-91, 11, 108, 43, -108, -48, 53, 83, 58},{19, 70, 7, -69, -82, -45, -77, -90, 80},{-4, 15, -25, 53, 114, 87, -105, -128, -62},{-4, 53, 109, 82, 90, -8, 62, 5, 12},{-114, -70, -33, 72, 77, -91, -48, -119, -45},{35, -68, -7, -12, 56, -119, 91, -19, 123},{50, 5, 123, 117, -127, 49, 98, 83, 11},{-38, 18, -111, 103, 32, -53, -58, -23, -103},{-20, 57, -94, 63, -36, -34, -71, 80, -105},{-62, 43, 4, -67, -34, -119, -71, -45, -117},{106, -75, 94, -11, 15, -16, 6, -10, -111},{82, 61, -6, 107, -87, -77, -115, 104, 15},{-21, -95, -32, 2, -29, -117, -121, 33, -23},{-112, 90, 60, -101, 68, 113, 122, -71, 1},{-22, 64, 119, -5, 18, 52, 117, -3, 93},{-88, 10, 70, 56, 117, 103, -104, -8, -53},{-93, -1, 108, 13, 15, 70, -55, 43, 10},{-69, 37, 67, 60, -113, 3, 51, 11, -107},{-24, 0, 18, -59, 41, -100, -117, -31, -110},{115, -7, 10, -66, 28, -119, -86, -87, 24},{112, -13, -61, -6, 46, 104, -67, -22, 120},{65, -99, 3, 86, 5, -125, -23, 75, 44},{5, 86, -115, 23, 73, 6, -95, -121, -93},{-86, -79, -52, 67, -95, 63, -122, 27, -19},{111, 89, 87, 103, 26, 117, -22, -16, -6},{-19, 89, -59, -102, -33, -100, -89, 118, 101},{46, -104, 109, 81, -62, -98, -99, -123, -64},{93, -116, 91, -54, 123, 52, -94, 98, -50},{-105, -52, 63, 17, 57, 24, 87, 83, 119},{115, 123, 110, 88, 41, -122, 69, -6, -56},{100, 23, -50, -92, -12, -38, 127, 63, -43},{52, 97, -73, -126, 120, 3, 65, 9, -68},{-38, -32, -112, -47, -45, -117, -65, -84, 52},{-59, 113, -82, 14, 85, 69, 92, 121, -70},{-74, 121, 121, 11, 45, 90, 66, 47, 82},{-59, -15, -37, 1, 75, 60, 17, -100, -113},{28, -36, -69, -48, 33, -83, -2, -81, -126},{-60, -117, 124, -2, -63, 117, -9, 76, 34},{-47, 14, -47, -93, 83, 66, -2, -43, 13},{-70, 102, 42, -54, 3, -122, 5, 83, 39},{50, -46, 87, 53, 22, 98, 49, -108, -92},{38, 11, 112, -56, 92, -1, 25, 127, -46},{-36, -3, 39, 105, 56, 14, 19, -126, -111},{25, 7, 100, -63, -70, -74, -104, 111, 76},{122, 32, 96, -98, -58, -21, -113, 14, -57},{14, -89, -58, 96, 3, 68, 8, -19, -4},{-106, -128, -2, -89, 26, -123, -117, 91, -65},{-62, 115, -82, -114, 109, 78, 111, -116, -108},{-38, -101, 34, 34, 41, 74, 104, 9, -51},{44, -111, 58, -88, -89, 59, 38, -50, -43},{44, -38, -80, 107, 28, -93, -102, 42, -112},{104, 25, -100, 125, 116, -73, 31, 22, 96},{-23, -2, -22, 55, -85, -5, -15, -45, 35},{-84, 122, 113, 1, 38, -53, 49, 17, 103},{84, 43, 18, 101, 20, -85, -127, 17, -97},{-71, -80, 53, -103, 26, -76, 3, -47, -33},{127, 66, 50, 34, 111, 44, 19, -16, -46},{95, -94, 100, 70, 118, 15, -40, 91, -93},{4, 93, 52, 35, -106, 101, -39, -81, -1},{13, 51, 80, 108, 50, 18, 30, -44, 1},{-53, 103, 114, 29, 70, -108, 1, 13, -118},{-111, 101, 102, -76, -23, 67, 105, -115, 89},{78, -26, -120, -51, 115, 59, -99, 95, -19},{47, -3, 65, -79, 72, 41, -93, -26, -17},{-73, 103, 124, -63, 120, 98, -89, -83, -53},{106, -106, -40, 67, 100, 62, 76, -79, 49},{7, -50, 16, 117, 125, -114, 54, -82, 86},{-33, -47, -68, 79, 8, -92, 75, 74, -100},{45, 113, -55, 121, 92, -33, -47, 31, -61},{-112, -21, -12, 65, 115, 66, -46, 104, 64},{-32, 30, 110, -74, 126, -64, -13, 77, 72},{23, 24, 18, 51, -58, 4, 125, -65, -32},{-36, 16, 127, 32, 32, -21, -108, -30, -34},{87, 52, -58, 23, -108, 100, 5, -54, 98},{69, 61, 47, 14, -44, -56, -96, -120, 14},{36, -123, 77, -124, -31, -35, -124, -127, 126},{-17, -106, -32, 77, 109, -108, -109, 4, -88},{119, -119, -14, 90, 79, -80, 9, -35, 4},{81, -3, 12, -33, -94, 17, -84, -90, 115},{10, -86, 116, 8, 25, -118, 104, -26, 119},{124, -7, -5, -92, -15, 5, 22, -53, -44},{70, 84, 49, -53, 38, -82, 87, -123, -48},{-23, -78, -9, -36, 60, 33, -48, -60, -69},{-37, -84, 33, -46, -88, -101, 78, -52, 12},{-45, 98, 87, 39, 41, 43, -40, 116, -47},{6, 75, -41, 87, -76, 9, -50, 16, -59},{111, 97, 9, -86, -68, 53, 76, 14, 93},{103, -36, -87, -13, 47, -117, -54, -42, 52},{117, 46, 40, -57, -75, -12, 30, -116, 40},{-89, -38, -71, -20, -55, -102, 117, -12, -42},{42, -64, 100, 7, -89, -63, 48, 26, 112},{59, 100, -57, -16, 89, 117, -104, -96, -86},{12, 62, -74, -75, 101, 16, -18, -47, 90},{8, -58, -50, 94, 112, 14, 66, -9, 53},{-125, -89, -49, 116, 99, -77, -69, -45, -116},{-80, -21, -83, -37, 120, 107, 17, -83, 81},{-94, 27, -94, 124, -93, -23, -54, -127, -39},{88, 67, 81, 13, 71, 120, 92, 59, 91},{-113, 118, -82, -101, -90, 26, -56, 1, 18},{-76, -109, 63, -123, -75, -38, -89, -79, -3},{16, -5, -2, 106, -45, -63, 59, 96, -120},{51, 60, 67, 15, 75, 57, 61, 102, 96},{-41, -81, -31, 105, -29, -12, 40, -24, 41},{-126, 15, 90, -1, -96, -43, 125, -118, 40},{-65, 69, 8, -57, -8, -60, -117, -121, -113},{68, 69, 118, 36, -100, -91, -122, -122, 8},{-6, 46, 112, -92, 49, -1, 126, -80, 31},{-44, -82, 41, 124, -19, -18, 5, 52, 103},{73, 63, 110, 89, 4, 51, 79, -88, 80},{116, -82, 86, -4, 41, 4, -20, 77, -75},{107, 75, -26, 11, -97, 20, -76, -100, -127},{35, 33, 53, 10, -22, -11, -8, -61, 121},{-84, -110, -95, 124, -122, -48, 82, 2, 121},{-42, 110, 70, 12, 90, 17, 114, -27, 49},{6, 25, 77, 7, -68, -18, -68, 70, 88},{49, -65, -100, 42, -21, -82, 76, -25, -75},{-100, -71, 55, -107, 15, 38, 91, -101, 0},{-20, -115, 101, -99, 19, -2, 106, -102, 59},{-40, -41, 1, -79, -120, 64, -51, 51, -85},{-5, -1, 18, 48, 27, 75, -24, 48, -37},{-114, 11, -10, 14, 119, 4, -13, -107, -105},{113, 127, -78, 44, -40, 9, -82, 9, 17}},{{110, 86, -60, -102, -47, 67, 44, -126, -34},{-8, -22, -114, 83, -8, 25, -55, -122, 17},{77, -7, 38, 101, -22, 37, -105, -105, 125},{32, -59, 6, -79, -77, -36, -10, -51, 46},{-71, 122, 48, 24, -14, -102, 38, -59, 18},{-64, 14, 24, 81, -36, -111, -9, -63, -5},{-100, -40, 18, -102, 120, 87, 32, -87, -117},{125, 31, -40, 43, 89, -46, -37, -15, 68},{-11, -105, -119, -121, -41, 24, 31, -88, 116},{48, 31, -75, -85, 60, 13, 62, 86, 5},{21, -10, 46, 32, -13, -50, 121, -98, -89},{-53, -7, 24, -112, 110, 47, -103, 117, -121},{49, 20, -81, 37, -60, 79, 90, -16, 11},{-25, -82, -31, 108, 67, 87, 27, -28, -53},{105, -35, -23, -112, 40, 99, 40, 56, 81},{-41, 82, 71, -34, 3, -37, 14, -87, 32},{-35, -125, -112, 104, -21, -66, -55, -41, -127},{-96, 114, -27, -21, 91, 66, 85, 107, -21},{56, 19, -93, 9, 107, 117, -48, -55, -7},{44, 87, 34, -52, -76, 37, -36, -100, -112},{26, -27, -24, 27, 6, -38, -127, 113, -74},{67, 70, -95, -82, -2, 53, -46, -120, 32},{-57, -40, 105, 64, -124, 65, -30, -48, 117},{-120, 44, -110, -104, -58, -9, 0, 98, 125},{91, 99, 111, -111, 38, 53, -78, 85, -76},{103, -89, -68, 7, -18, 20, -15, -81, 25},{-78, 17, 105, -89, 25, 22, -71, 50, 92},{49, -78, 62, 46, -115, 33, 29, -98, -56},{-45, -47, -99, 7, -72, -60, 67, 64, 50},{-41, -79, 97, 112, -29, -13, 90, 10, -116},{-16, 68, 62, -52, -11, 113, -117, -93, 126},{44, 65, -99, 116, -108, -18, -111, 27, 38},{-43, -34, -26, -120, 53, 23, 105, 38, 122},{-36, 0, 5, -23, 112, -55, -89, -68, 62},{-104, -57, 97, -105, 116, 34, -76, 104, 54},{34, 122, -47, -56, -49, 47, 47, -41, -27},{-58, -63, -117, -63, 29, 11, 70, -122, -5},{-113, -82, 55, 77, -58, 127, 46, -35, 115},{-47, 17, 91, -121, -77, 85, -39, -4, -91},{-120, -85, -4, -19, -15, 61, -8, 50, -37},{-125, -8, -31, -2, 7, 15, -74, -44, 86},{-75, -125, -77, -88, -44, 69, -125, -37, 120},{89, 52, -12, 126, 61, 31, -6, -86, -111},{-72, 35, 67, 19, 38, -68, 116, -91, 67},{4, -37, -104, -38, 16, -101, 13, 56, -17},{-46, 59, 74, -53, 20, -1, 63, 18, -68},{-33, -115, -26, -16, -59, -119, -77, 88, 48},{-17, 76, 85, -77, -48, -80, -53, 42, 64},{-26, -72, -8, 85, 10, -77, 31, 85, 72},{-98, 21, -38, -38, 116, -25, 65, -28, 44},{74, 23, 4, -6, -121, -47, -49, -70, 33},{-1, 5, -52, -65, 107, 4, 55, 64, -114},{107, -33, 100, 51, -2, -7, -115, 88, -19},{-11, 25, 81, -95, -28, -24, 38, 94, -17},{119, -82, 41, 24, 45, -82, 100, 109, -103},{-24, 36, 89, -9, 15, -71, -37, -62, 55},{84, -48, 15, -63, 69, -87, -110, 102, 13},{-6, 12, -21, 106, 3, 25, 19, -100, -57},{66, -128, -76, 91, -23, 88, 53, 96, -24},{110, -69, 42, 37, -113, 122, -76, -48, 63},{-35, -30, 38, 106, 92, -78, -42, 70, 54},{111, -38, 82, -74, -100, 82, -22, 119, -69},{-61, 44, -101, 43, 26, -42, -43, -65, -27},{-48, -12, 53, -113, 81, -105, 53, 60, 116},{104, -110, 58, 30, -127, -108, -16, -72, -80},{-62, 34, -88, -2, 101, 84, 25, 16, -17},{112, 102, 46, -43, -74, -94, -117, -59, 116},{-94, 123, 48, -106, 99, 66, 81, 1, 67},{101, 113, 123, -106, -77, 30, -66, 49, 3},{-110, -53, -108, 1, -69, 122, -80, 16, -80},{-46, 27, -11, -58, 62, -16, 118, 84, -45},{56, 37, 84, -4, 11, 69, -9, 33, 121},{-107, 95, 42, 25, 113, 117, 45, -13, -80},{39, 35, 65, 87, 117, -36, -52, -68, -102},{61, -78, 111, -112, 107, 20, 101, -25, -97},{42, 94, 64, 35, 116, 31, -50, 13, 17},{-61, -70, -124, -12, 97, 39, -75, 56, 28},{17, -124, 88, 44, 65, -117, 27, 82, 118},{-81, 55, -35, -49, -31, -69, -113, -123, -81},{47, -45, 60, -64, 22, 118, -60, -118, 87},{107, -65, 15, 7, 81, 20, -32, -3, -43},{-21, -104, -89, -31, -57, 94, 62, 22, -64},{121, 38, -59, -87, -43, 24, 101, 21, -82},{92, 89, -71, 51, 68, -8, -61, -53, -55},{87, 43, 70, -84, -106, 94, -44, -9, -90},{-78, -75, 60, -14, -81, -30, 55, -40, 55},{-49, -67, -52, -2, -103, -91, 55, 77, 105},{-81, -112, -75, -7, 103, 96, -65, -109, 119},{-98, -25, -18, -60, 26, 36, -128, -116, 83},{-29, 68, -85, -102, -109, -24, -25, 17, 2},{12, -56, -49, -10, -8, -33, 43, 113, -58},{11, -80, -39, 2, -50, 65, 113, 18, -37},{21, 19, -25, -24, 118, -85, 19, -112, -65},{123, -9, 80, -3, -124, -103, 76, -6, 17},{-85, -91, 2, -15, 48, 50, 75, -77, -127},{12, -92, 19, 103, 57, -90, -50, -95, -100},{-6, 52, -83, 57, 47, 36, 9, -83, 40},{34, 121, -94, -77, -91, -57, 53, 22, 120},{-24, -31, -85, -23, 109, -49, 124, 84, -120},{-93, -93, -87, -65, 29, 93, -20, -42, 12},{-111, 95, 57, 57, 2, 51, 92, 53, 88},{-93, -21, -18, -101, 83, 80, -58, -68, 61},{21, -72, 18, 29, -37, 53, 70, 27, -46},{35, -121, 40, -80, -104, 7, 105, 82, -119},{28, 46, 63, -12, 81, -86, 99, 109, 125},{51, -77, -71, -16, 73, -15, -126, -26, 77},{55, -83, -24, -119, 80, -17, 49, -128, 8},{-71, 106, -38, -62, 6, -120, -127, 123, 89},{-85, 94, 70, -88, 17, 122, -31, -127, 67},{83, -124, -87, 32, 59, -42, -120, 69, -89},{-9, -10, -89, 127, 47, -111, -39, 114, 24},{-31, 115, 19, -69, -97, -15, -127, -57, -126},{123, 41, -125, 62, -4, -121, 104, -100, 67},{-66, -92, 8, -27, 27, 126, 13, 27, 46},{30, 116, 32, -74, -42, 19, 73, 17, 50},{-70, 18, 122, -68, 14, 35, -64, -52, -97},{-57, -76, -69, -118, -13, -33, 18, 88, 122},{17, -27, 21, -65, -124, 10, 95, -70, 96},{-14, -124, -15, -91, -66, -125, -97, -5, 17},{66, 59, 94, 97, -126, -110, -100, -115, 5},{-5, 31, -34, -11, -80, 67, -117, -17, 71},{21, -50, -126, -11, 65, -122, 102, 102, -60},{105, -123, 63, -5, 71, -6, -39, 40, -3},{-21, 68, 10, 113, -65, -87, -49, 52, -38},{-110, 63, 73, 90, -44, -104, 92, 73, 89},{98, 47, 63, -90, 25, 68, 102, -108, 11},{-32, -19, -77, 93, 88, 119, -25, 73, -74},{17, -104, 106, 107, -85, 42, 52, -123, 126}},{{76, 97, 72, 37, 67, -9, -28, 105, -112},{-88, 79, -92, 51, -80, 17, 102, -115, -22},{93, -11, -77, -109, -122, -52, 126, 113, -9},{40, 37, -4, 38, -14, -35, -18, -105, -96},{102, -4, -119, 118, 36, 89, -101, -40, -119},{44, -66, -106, -106, -100, 11, -54, -81, 17},{22, -83, 2, -115, 85, -88, 9, -4, 26},{102, 106, 49, -122, 80, -83, -113, 71, 82},{104, 98, -86, 113, 14, -24, -120, 37, 4},{19, 111, 52, -91, 5, 97, 39, 18, 55},{79, -101, -77, -23, -127, -99, -101, -121, 110},{-56, -106, 53, -102, 127, 23, -60, 112, -91},{45, 120, 74, -79, 12, 57, 101, 49, -66},{71, -40, 80, -2, -88, 107, 49, 17, 108},{78, 44, 115, 60, 117, -118, -15, -113, -119},{-120, -44, 121, -82, -127, 114, 120, -78, -2},{50, -104, -81, 112, 95, 7, 65, -35, 47},{44, -114, -63, 25, 92, 109, 12, 25, 98},{22, -118, 114, 31, -109, -58, 25, -63, -57},{11, -71, -7, -119, 107, 17, -72, 92, -16},{63, 29, 77, -17, -55, 91, 48, 98, 56},{29, -17, -47, 0, -123, -37, -14, 37, -18},{56, -66, 47, 127, 73, 105, -8, 82, 84},{-118, -118, 48, -6, 73, -51, -56, -72, 23},{-93, 104, -7, 91, 6, 104, -84, -122, 110},{8, -8, 19, 118, -80, 81, 38, -81, 26},{15, 39, -20, -29, 49, -10, -108, -84, -65},{-31, -12, -8, 120, 23, -32, -14, -13, 102},{-38, 31, 108, -56, -89, -28, 91, -98, 20},{44, 68, 67, -58, -45, -21, 50, 54, -100},{-88, 74, -56, -24, -84, 60, 96, -92, -44},{-64, 22, 71, -89, 113, -26, -109, -71, 14},{-8, -107, 44, -116, 65, -16, 80, -120, 67},{-69, 58, -7, -41, 99, -60, 32, -53, -16},{-36, -85, 20, 48, -21, -85, -9, 18, -100},{94, 38, -43, -20, -98, -22, -104, -86, -84},{8, 122, -76, -53, -75, 110, 68, 13, 81},{-120, -83, -100, -8, 9, -57, -115, -70, 51},{-72, 49, -59, -44, 15, 107, 41, 123, -119},{-108, -109, -76, -64, 27, -82, -12, 102, -28},{-30, 43, 113, -76, 51, -98, -48, -84, 39},{24, -71, 97, -53, -15, 19, 16, 69, -94},{-4, -18, -98, 5, 2, -79, 57, 66, 77},{104, -74, 51, -52, 25, -34, -67, 77, -110},{-37, -99, -66, -126, 53, -9, 100, -128, 104},{-9, 17, 45, 25, -115, -101, 55, 18, 30},{105, -52, -32, 54, -76, 23, -23, 0, -80},{72, 61, 125, 90, -104, -102, -104, -102, 80},{15, 126, 80, -9, -11, -31, -92, -113, -18},{-65, 70, -127, 93, 47, -51, -66, -27, 1},{85, 79, -127, -123, 23, 62, -126, -15, 86},{-100, 9, 112, 108, -104, 111, 61, 15, -28},{-98, 51, -13, 13, 114, -70, 14, 80, 105},{91, -114, -49, -36, 99, -98, -35, 104, 53},{-101, 106, -90, 113, -122, 47, 97, 115, 71},{80, 48, -42, -75, 78, -119, 40, -37, 123},{98, 105, 75, 76, 68, 89, -101, -96, 60},{-71, -3, 36, 110, 24, 14, -108, 9, 21},{67, -21, 8, 10, -69, -72, 96, -16, -122},{105, -103, -30, 100, 123, -53, 48, 71, -112},{9, 98, -80, -58, -101, 46, 106, -119, -58},{-7, -99, 80, -114, 96, -69, 22, -22, -10},{78, -54, 103, 84, -77, -128, -74, -104, 123},{2, 72, 67, 18, -47, 37, 66, 23, 65},{-16, 2, 74, 55, 123, 104, 7, -119, 72},{66, 31, -77, -72, -19, -3, -97, -63, 49},{-97, -8, 73, -101, 122, 17, 94, 12, 98},{3, -50, -6, -60, 63, 124, -113, -10, 119},{119, 125, -128, 63, 63, 31, 114, 119, -116},{-16, -105, -51, -95, -74, 69, 106, -47, 63},{-5, -81, -53, -35, 51, 26, 87, 119, -39},{83, -122, 79, 74, 125, 76, 74, 61, 11},{-23, 47, 2, -11, -97, 25, 67, -64, 80},{8, -86, -95, -56, 37, -47, 19, -125, -124},{-83, 90, 123, 6, 46, -126, -43, -8, 127},{-95, -61, 60, 44, 44, -20, -81, -94, 11},{72, 101, 76, 24, -19, 118, 58, 53, 28},{-117, -55, 31, -113, -10, -7, -118, 125, -89},{-116, -46, 32, -116, -12, 99, 72, -96, 15},{-76, -49, 49, 64, -104, 22, 12, 48, -124},{2, -22, 57, -98, -11, -126, 61, 4, -7},{-73, 15, -10, -34, 27, 72, 126, 39, -68},{97, -16, -35, -15, 36, 44, -94, -28, 68},{57, 112, -11, 61, -13, 95, -10, 17, -43},{-7, -49, 89, 114, 6, -24, -24, 100, -124},{-80, 99, 43, -19, 68, -101, 74, -75, 64},{-10, -40, -92, -69, -111, -107, 48, 78, 8},{15, -60, -103, 100, 61, -24, 62, 47, 110},{-90, -105, 83, -86, -56, 54, 86, 53, -6},{113, -1, 48, 49, 117, -120, 86, -80, -103},{107, 96, 103, -13, -16, -85, 12, -44, 105},{117, -110, 24, 99, -71, 48, 54, -29, 120},{-20, -71, 45, 103, -85, -84, 23, 92, -95},{31, 50, -46, 56, 29, -78, 31, -112, 34},{74, 29, 119, 51, 18, -119, -52, -11, -62},{124, -84, 38, 116, 24, 95, 33, -1, -118},{77, -106, 103, 110, 53, 25, -64, -19, -73},{-13, -116, -57, -107, 87, 100, -116, 10, -10},{-106, 86, 108, -40, 82, -104, 126, 70, 48},{94, -25, -80, 104, -76, -58, 79, -93, 124},{-23, -29, -23, 32, 86, -10, 103, 108, -51},{76, 120, 87, -62, -114, 46, -82, -25, 0},{-58, -27, -57, 119, -61, 46, -89, -84, 99},{-19, 123, -122, -23, -28, -23, 83, -124, -64},{-55, 108, -84, 22, 56, -92, -19, 122, -77},{-101, -87, 26, 28, -17, 127, 99, -26, -61},{17, 13, -17, -12, 123, -22, -6, -28, 79},{100, -73, 83, -92, 0, 63, -48, -106, -9},{-12, 4, -14, 39, 31, 27, -63, -69, -118},{-63, -98, -15, 4, 48, 126, 115, -92, 121},{-35, 31, -34, -84, 3, 21, -128, 39, -106},{63, 119, -84, -73, -21, 48, 41, -109, -48},{-60, -44, 11, -50, 21, 42, 63, -103, -38},{62, -116, -2, 55, -22, -99, -107, 22, 32},{43, 22, -57, 65, -42, -66, 109, 13, 42},{30, -74, 61, 110, -6, -111, -7, 72, 39},{-93, 8, 64, -3, -58, 77, 124, 125, -73},{-103, -109, 77, 58, 62, -28, -127, -1, 58},{-64, -20, -57, 106, -118, -3, 39, 120, 119},{56, -14, 63, -33, 21, -57, -96, -109, 13},{109, -113, 11, -92, -88, 30, 113, 98, -36},{-43, 100, 91, -113, -92, -57, -42, -114, -46},{83, 53, -54, 74, -19, 60, 10, 77, -46},{81, 109, -27, -33, 90, -12, 106, 126, 28},{8, 111, -1, 100, -59, -29, 63, -44, 7},{-122, 43, 21, -40, -2, -54, 35, -55, 55},{-33, 83, 4, 49, 36, -15, -106, -125, -53},{10, 109, -55, -89, -11, -71, 38, -39, -2}},{{-119, -104, 82, 16, -97, -3, -91, -9, 124},{-17, -102, -59, -90, -6, -104, 43, -85, 60},{-100, -62, 64, -24, 76, 45, 49, 115, -93},{106, 25, -4, -24, 34, 21, -69, -78, 52},{56, -41, -85, 52, 70, -58, 121, 109, 64},{-111, 24, 107, 78, 52, -83, 14, -100, 122},{-69, 78, 109, -34, 56, 7, 91, -95, -87},{-16, -36, -36, -92, -108, 51, -49, 73, -6},{21, 66, -25, -43, 84, 127, -63, 34, 51},{-18, -80, 80, -24, -21, 30, -42, 74, -42},{93, 37, -9, -122, -107, 83, -30, -71, 104},{-106, 8, 49, 16, -98, -13, 119, -13, -57},{118, 52, 105, 41, -93, -103, -7, 11, 5},{-105, 97, -49, -18, 62, 116, 101, 69, -119},{57, -89, -62, 33, -67, 74, -46, 77, 104},{69, 68, -36, -115, 58, -112, 118, -28, -77},{-112, 93, 63, 21, 117, 32, 100, -29, -33},{88, -56, -92, 97, -127, -53, -93, 34, 9},{109, 116, -42, 86, 58, -101, -78, 71, 85},{-62, 61, -71, -10, 77, -105, -75, -30, -116},{85, -58, -17, -76, -98, 55, -40, 127, 57},{36, -94, -37, -83, -112, -48, 3, 102, -118},{30, -104, 81, -12, -38, 14, 45, 80, -36},{68, -123, 62, 80, 91, -123, -65, -113, -93},{119, -24, -93, 48, -116, -59, -117, -71, -43},{-37, 60, -69, -27, -37, -45, -74, 79, 46},{69, -4, -2, -95, -63, 4, 95, -111, -33},{100, -47, -18, -120, -56, 86, -85, 120, 98},{-16, -125, -101, 70, -33, 88, -127, 68, -77},{-43, 123, -126, -125, 64, -2, 1, 97, 63},{-123, 64, 81, -28, 37, -94, 83, 45, -22},{41, 88, -30, 12, -56, -27, 39, -114, 68},{-1, -112, 9, 50, -27, 4, 52, -24, -60},{-77, 105, -91, 114, 111, 101, 67, -45, 10},{101, -90, -73, -49, 80, -113, 49, -36, -40},{-105, -125, -26, 91, 3, -10, -28, -75, 91},{104, 106, -61, -84, -99, -83, -47, -113, -100},{-73, 83, -17, 65, 56, 22, 121, -120, -26},{-120, 57, 66, -32, 80, 69, 71, 44, -56},{-67, -112, -2, -103, 121, -24, -36, -91, 5},{9, -9, 20, 37, 46, -25, -107, -17, -96},{43, -24, -88, -111, -15, 97, 83, 81, 50},{24, 24, -34, 97, 86, -18, -33, 111, -25},{71, -53, 13, -52, 85, -124, 96, -6, 50},{-56, 15, -95, -24, -70, 10, 16, -53, 123},{-15, -98, 76, -93, 55, -27, 1, 24, -69},{112, 119, -86, -41, 62, -11, 100, -118, -54},{104, 106, 69, 26, -78, -44, 60, 26, 15},{-58, -86, 90, -63, 28, 121, -115, 63, 48},{-14, -63, -56, 45, -79, -65, 87, 8, 125},{-51, -19, -121, 23, -43, 113, -36, 112, -92},{49, 44, 62, -64, 114, 105, -102, -77, 5},{-109, -64, -60, 67, 51, 5, -117, -32, 54},{-54, -72, -65, -57, 5, 44, -50, -100, -127},{-64, -7, 113, -28, -86, 29, -94, -22, 15},{-117, 4, 66, 16, 24, -125, 85, -37, 54},{-38, -25, -106, -111, 49, -50, -48, 121, 83},{124, -57, 112, 125, 7, -23, 111, 107, 19},{12, -114, 125, -100, -103, 1, 94, 42, -103},{97, -1, -11, 23, 89, 92, 46, 106, 13},{124, -70, 6, 80, -74, 78, 64, -76, -43},{-87, -93, -63, 60, 47, -49, 57, 75, -24},{-70, 42, -110, -44, 11, 17, 73, -93, -21},{37, 81, -43, -78, 77, 16, 57, 29, 70},{7, -35, 122, 92, 6, -99, -99, -62, 77},{-20, 123, 24, 85, -74, -62, 103, 10, 78},{-7, -45, 113, 100, 120, 66, -71, -86, 15},{73, 99, -83, 16, -22, 10, 10, -57, -111},{40, -28, -45, -11, 81, -49, -115, 38, 5},{-48, 13, -113, -98, -122, -30, -113, 106, -38},{81, -92, 4, -32, 109, -24, 13, -3, 82},{-104, -120, -103, -87, 48, -2, -4, -91, -49},{75, -78, 117, -48, 2, 2, -33, 32, 9},{65, 47, -13, -101, 0, 23, 32, 97, 5},{-120, -18, -126, 90, 6, -118, 116, 47, 58},{-14, -84, 95, 65, 119, -110, 54, -56, 20},{-72, 39, -75, 65, -23, 100, -75, 4, -27},{76, -92, -58, -47, -84, 52, -44, -121, -69},{-34, 123, 106, -103, -19, -106, 120, -82, -114},{-118, 100, -42, 31, -100, 125, 84, 94, -26},{56, -109, 107, -99, 95, -113, -29, -79, -68},{-104, 5, -61, -45, 99, -66, -67, 124, 43},{-44, 117, 89, -30, 127, 61, 56, 30, 89},{53, -14, 55, -100, -85, 74, -121, -56, 42},{-106, 44, 91, -46, 68, -32, 21, -105, -61},{83, -44, -64, -2, 40, -75, -41, -118, -76},{-108, 66, 83, 110, -8, -59, 37, 20, -16},{-16, 27, 57, -102, 49, -27, 117, -124, -87},{-43, 25, -64, 24, -19, 20, 88, 107, -67},{-115, -61, -57, -62, -41, -118, -107, -59, 2},{-38, 107, -106, 75, -37, 49, 4, -11, -30},{105, -22, -26, -110, 63, -128, -46, -41, -19},{102, -80, -40, -93, -67, 27, -21, -1, 115},{-11, 20, -72, 119, 111, -93, -115, 58, -2},{62, -66, 115, -96, -89, -35, 7, -71, -100},{7, 11, -12, 116, -15, 36, -52, 21, 97},{104, -128, -31, 91, -11, 117, -109, -20, 100},{-73, -7, 30, 53, -73, 92, 41, -41, -125},{-122, 94, -68, -93, -27, 71, 23, -39, -71},{-69, 38, 78, -100, 14, 78, -3, -23, -61},{-13, -4, 47, -41, 51, -88, 118, -23, -33},{82, -110, 54, 86, -104, 21, -110, -69, 122},{90, 82, -44, -109, -115, 122, 97, -86, 8},{47, 39, 113, 114, -102, -19, 33, -14, -95},{73, -24, 10, -88, -70, 28, 94, -112, 52},{-13, -93, 112, -18, 125, 66, 66, -112, 80},{60, 113, 122, -60, 32, 33, -75, 18, 60},{34, -77, -82, 67, 124, 22, -51, -92, 80},{105, -126, 97, 30, -10, -124, 14, 100, -127},{-48, 38, -111, -96, -30, -126, -102, 38, 34},{60, 91, -76, -8, -3, -25, 38, -63, -29},{-68, 14, 7, -116, -8, 9, 109, -106, 127},{113, 36, 99, 114, 116, 9, -125, -107, 107},{-123, -81, 17, 39, 107, -20, 91, -29, 106},{-62, -119, -85, 37, -59, 57, -84, -46, -79},{54, -65, -57, 53, -79, 107, 25, -93, 96},{-94, -89, 117, -114, -84, -92, 31, 84, -112},{-116, 47, -13, 118, 114, -3, -95, 23, 66},{90, 68, -108, -116, -6, -44, -45, -81, 5},{-65, 72, 40, -97, 107, 79, -108, 121, 124},{-72, 24, 80, -56, 36, -1, 60, 26, -15},{-71, 59, -119, 123, 22, 77, -112, 34, -57},{-28, 117, -10, 105, -76, -65, 17, -45, -86},{-31, -25, -93, -35, 32, 59, -83, 104, -32},{44, 36, 122, -98, 93, 54, -89, 89, -52},{116, 105, 110, -69, -51, 99, 49, -74, -104},{112, 71, -21, -102, -88, 83, -67, 5, -13},{121, 50, -37, -39, -33, -128, -45, -3, 93}},{{-119, 36, 54, -43, 24, 31, -61, 83, 108},{-89, 4, -94, -65, -11, 106, 42, 15, -110},{-3, 77, 24, 112, 70, -54, -52, -97, 41},{-52, -14, -90, -87, -4, 74, 96, 81, -30},{-1, -107, -75, -20, -68, 58, 14, -5, -81},{-8, -91, 62, 11, 35, 11, -93, 19, -47},{-19, 95, -16, -105, -85, 99, -67, -43, -33},{-120, -75, -80, -22, 52, -59, 32, -96, 1},{-38, 47, 124, 9, -89, -94, -57, 50, 69},{83, 85, -40, -92, -61, -72, 21, -38, -29},{-8, 23, 56, 87, 31, 109, -121, -118, 34},{-51, 42, 66, 78, -124, -15, 75, 13, 25},{109, 84, -53, 50, 39, -95, -118, 76, -28},{-62, -31, 62, 38, 89, -43, -34, 48, 117},{-52, 55, 127, 110, -124, 41, 48, 83, 45},{-94, 30, -70, 59, 11, -114, -122, -67, 54},{-89, -57, 2, 11, 10, 99, -55, -80, 60},{31, 14, -20, 20, 90, -93, 19, 72, -88},{-68, -7, 123, 105, 27, 25, -93, -42, -92},{-79, -36, -31, 103, 4, 40, -23, -113, -78},{-52, -39, -30, -120, 120, 113, -12, 12, 75},{24, -97, 20, 64, -37, -115, 59, -60, 40},{-44, -25, 126, -8, 24, -38, 89, 0, 94},{1, 105, 110, 52, -74, -57, -106, -66, -65},{-121, 51, 75, 83, -53, 106, -25, -117, -59},{-12, 70, 9, -100, -102, 112, -102, 18, 8},{-12, -21, -120, -45, 108, 114, -63, 32, -88},{8, 55, -26, 71, 62, -103, 18, 17, -28},{-4, 120, -17, 65, -20, -75, -54, 8, -49},{-70, 34, 97, 66, -105, -52, 75, -22, -71},{61, 43, 89, 101, -77, 16, -53, 122, -49},{-27, 12, 96, 73, -120, 89, -71, 73, -59},{-18, -109, 78, 62, -51, -16, 31, -113, 7},{108, 90, 113, -91, 23, 28, 126, -4, 79},{15, 72, 73, 94, -83, -43, 62, 118, -35},{23, -81, -90, 93, 30, -71, 43, -36, 6},{-101, 123, 22, 35, 103, -16, 20, -116, -120},{-79, -117, 4, -128, 26, -52, 74, -8, -7},{-97, -74, -16, -3, 78, 31, 35, 43, -67},{93, -42, 25, -29, -15, 21, 121, -108, -4},{-22, 41, 9, -14, 90, 20, 118, 90, -82},{-61, 36, 38, 60, 68, 92, -84, -63, 42},{76, 100, -43, -119, 65, 43, 35, -91, -99},{-72, -98, -79, 52, 8, 90, -67, 122, 52},{81, 113, 15, 127, -76, -77, 37, 112, 119},{2, -99, -72, -84, 105, -99, 2, 114, 94},{-83, 21, -125, -54, 77, -94, -4, 2, 42},{-42, 63, 37, -117, 17, 22, 26, 16, 74},{77, -74, 58, 69, 56, 87, 125, 100, 64},{-102, -26, 51, 121, 20, -56, 124, 94, -106},{-98, -38, 24, 73, 49, -41, -18, 60, 104},{-124, -42, -7, 78, -93, 47, 8, 104, -25},{-32, 102, -53, -96, -128, 50, 83, 121, -58},{-100, 118, -92, -78, -108, -1, 74, 93, -80},{-95, -53, 108, -118, -49, -62, 3, -99, -27},{-78, 38, -50, 25, -122, -76, 100, -90, -76},{22, 122, -82, 92, -106, -92, -127, -56, -72},{0, -110, -106, 48, -77, -31, 28, -67, 49},{94, 64, 78, -61, 114, -12, 17, 11, -6},{69, -16, 33, 122, -122, 27, -88, 99, 49},{-52, 100, 121, 4, -28, -117, 26, -108, -66},{124, 48, -4, 45, 14, -68, -5, 81, -81},{112, -29, 58, -22, -88, -86, -117, -94, -79},{38, -54, -108, -41, 22, 120, -48, -101, -36},{-37, 53, -16, 26, 49, -96, -106, -34, 46},{-46, 90, -1, 1, 74, 98, -68, -76, -117},{-26, -64, -83, 23, 102, -8, 43, -66, -114},{35, 14, -87, 127, 106, 95, -17, 4, 16},{15, 26, 111, -67, 108, 73, 61, -18, 19},{31, 42, 71, 42, -112, -121, 88, 40, 110},{-48, -45, -84, -34, 119, 58, 8, 118, 36},{-25, -26, -88, 119, 117, 66, 102, -77, 47},{47, 112, -99, -62, 15, 71, -118, -70, 87},{-111, -110, -1, 127, -30, 83, -85, 64, 74},{102, -56, 64, 10, 47, -90, 51, 39, -100},{-11, 13, -49, -92, -67, -65, -63, -1, 78},{-120, 9, -120, 96, 27, -102, -33, 26, -4},{-78, 70, -67, 124, 44, 5, 61, -74, -75},{99, 105, 92, 127, -33, -23, -50, 3, 38},{13, 69, -90, -36, 77, 47, -28, 45, -54},{-1, -115, 101, 123, -65, 43, -72, -68, -41},{62, 121, 13, 115, 92, -9, 79, 92, 86},{-72, -86, -39, 95, 56, -98, -123, -108, 108},{52, -8, 25, 127, 119, 38, 100, 115, 102},{15, -85, -94, 102, 105, -101, -13, 92, 119},{106, 43, 83, 64, 100, 126, -102, 67, 54},{-72, 72, 74, -92, -4, -62, 62, -5, -70},{-28, -33, -83, -54, 110, -40, -20, 84, -62},{7, -56, -98, -1, -78, 74, -46, 115, 46},{-48, -115, -15, -122, -59, -71, 80, -22, 53},{-109, -88, -79, -51, 12, 16, -6, 87, -1},{82, -61, -45, -108, 75, 27, -77, -54, 78},{125, 28, 65, 43, 109, 78, -100, 115, -109},{-43, 68, -3, -118, 87, 37, -69, -92, -78},{76, 30, -119, -53, -16, -52, 30, 5, -105},{-70, 56, -31, -120, 53, 126, 73, -32, 107},{23, -4, 94, 42, 81, 34, -88, 91, -7},{77, -105, 29, 127, 99, -69, -120, -82, 44},{-43, 76, -79, -20, -122, 105, 78, -114, 30},{76, 87, 126, 55, -18, -6, 21, -103, -53},{-72, -63, -90, 49, -114, -67, -49, -114, -96},{10, -106, -50, -74, -21, -101, -25, 88, -95},{-48, 38, -80, 110, -14, -121, 108, -87, -10},{-26, 62, 15, 49, 118, 80, 88, 40, 94},{-107, 119, 108, -74, 1, -125, 4, 56, -18},{31, -97, -58, 65, -16, 108, 113, -34, -34},{120, -53, 7, -18, 49, -58, 125, -29, -68},{77, -69, 100, 44, -48, 91, 24, 6, -35},{27, -117, -107, -118, 42, -76, -48, -21, 36},{-67, -36, -125, 27, -43, -50, -93, 67, 127},{-23, 65, -30, 37, 14, 29, 10, -70, 110},{-27, 83, -12, 66, -18, -1, 87, -8, -86},{-116, 73, 21, 48, -122, 114, 51, 33, -57},{-127, 68, -118, -127, -83, 75, -29, 83, -38},{-127, -35, 20, 111, 66, -25, -29, 5, 86},{99, -36, -50, -115, -24, -105, 34, -103, -99},{20, 76, 63, 91, 78, 3, 102, 79, 49},{49, -78, 4, -117, -77, 97, 32, -94, 35},{-121, 6, -88, 93, -23, 5, -84, -10, 109},{-61, -104, -122, -31, 45, 83, -96, 8, 33},{35, -18, -16, -44, -96, 34, 88, -85, 86},{57, 75, 120, -35, 83, -2, 5, 48, 103},{-118, 92, -35, 120, -96, -10, 126, 1, -93},{81, 33, 43, -14, -60, -102, 98, 25, -70},{5, -15, -27, -37, -85, -79, -45, 8, -124},{82, -115, 52, 57, -104, 17, -105, -112, 49},{13, -114, -78, 48, 96, 83, -37, -46, -105},{-11, -75, 48, 47, 58, -94, -107, -107, -51}},{{-58, -24, 85, -54, -70, 98, 126, 116, 122},{15, -117, -118, -64, 24, -103, -14, -56, 121},{-59, 35, -53, -35, -103, 0, -115, 72, -70},{-81, 93, -49, -4, -93, 56, -47, -19, 114},{-76, -20, 102, -82, 123, 113, -71, -68, 9},{-46, 46, 81, -53, 116, -11, 22, -47, 14},{-105, -34, -42, -47, 14, -76, 33, -118, -41},{-39, -36, 69, -53, 16, -79, -78, 62, -84},{-93, 119, -24, 45, -55, -105, -2, 20, -117},{115, -85, -36, 1, -62, 58, 88, 19, -56},{-116, -76, -45, -29, 13, 47, -88, 89, -65},{-39, -117, 125, 6, -82, 117, 110, 91, -66},{-123, -38, 83, -112, -51, 126, -20, 79, -64},{-89, 39, 83, -17, 51, -120, 66, -106, 21},{-15, -65, -18, 48, 24, -7, 46, -98, 40},{35, -115, 3, 97, -110, 93, 52, -93, -85},{50, 15, 122, 114, 54, 33, 70, -90, -44},{78, 104, -22, -29, -38, 41, 82, -118, -62},{-53, 56, -32, 115, -37, -19, -9, -67, 0},{-44, 113, 35, -1, 36, -78, -7, 22, 105},{-102, -36, -113, -18, -86, 119, 89, 14, -47},{2, -32, -36, 68, 43, -108, -91, 31, -16},{18, -106, 45, -110, -22, 30, 53, 106, -62},{104, -29, 89, 81, -2, -75, 96, 108, -32},{87, 69, 110, -87, -56, -50, 5, -116, 121},{25, -79, 24, -119, 68, 46, 54, 86, -103},{-43, 12, -125, 23, -12, -26, -16, -59, 100},{38, -91, 81, -122, 124, 22, 116, -91, 94},{-62, 42, 107, -69, -60, -100, 84, -51, 96},{2, -124, 55, 27, -39, -61, 30, 112, 55},{-123, -31, 124, 105, -121, -95, 58, -115, -99},{-47, -127, -61, -81, -61, 109, -102, -2, -79},{-73, -46, -1, -105, 85, 3, 78, -16, 92},{-111, -113, 76, 72, -108, -83, 68, 125, -76},{101, 56, -63, -125, -119, -62, -58, -72, 5},{-77, -45, -124, -27, 10, -42, 100, 33, -85},{-25, -16, 28, -61, 1, 43, -113, -54, 63},{-67, -114, 60, -15, 116, -12, 51, 119, -3},{117, -67, 54, -5, -16, -119, -1, 85, 19},{85, 57, -76, -127, -96, 36, 29, -29, -90},{-56, -13, -16, -121, 48, -2, 67, -95, -14},{-72, 84, -23, 53, 74, 38, -21, -59, -105},{-12, 68, 108, -121, 25, 38, -68, 26, 70},{96, -73, -86, -122, -1, 29, -10, 6, -51},{117, -54, -18, -25, 2, -61, 81, -73, -115},{-9, 35, -46, 14, -105, -106, -5, -97, 47},{-95, -37, -54, 103, -69, 1, -111, -62, -127},{46, 56, 7, 123, 45, 81, -22, -107, -45},{45, 102, 11, 58, -35, -82, -116, 108, -59},{-94, -25, -28, 81, 8, 63, -101, -17, 123},{29, 1, -67, 30, -81, 117, -91, -85, 35},{119, 21, 56, -54, -62, 30, 85, 124, 123},{-125, -120, 103, -55, -86, -50, 45, 123, 86},{-19, -105, -58, -24, 52, 71, 37, -46, 118},{26, -9, -95, -67, -18, 54, 117, 57, 120},{19, 14, 116, 15, 18, 124, -10, 91, -90},{69, 8, -94, 27, 117, -71, 97, -35, 109},{40, -126, -65, 31, 29, 54, 64, 90, -91},{-9, 80, 94, -17, -29, -20, -28, 114, 126},{-32, -23, 89, 7, -82, -30, 41, 73, -41},{98, 43, 53, 79, -45, 55, -114, 114, -44},{68, 51, -81, 105, -86, 127, 71, 25, -30},{-76, 125, -43, -78, -34, 62, -116, 101, 108},{-18, 14, 53, 69, -16, -32, -6, -65, 52},{-78, -51, 38, 6, -111, -39, 53, 123, 3},{52, 66, -99, -105, 118, -102, -20, -87, -8},{-86, -75, -35, -106, 35, 107, 75, -24, -37},{-84, 99, 26, 96, -107, 103, 6, 27, 121},{96, -47, 116, -29, -123, 54, 0, -100, 45},{27, 8, 86, -109, 50, -117, -15, 72, 46},{-36, 20, -106, 56, 64, 121, -46, 32, -114},{-70, -90, 42, -77, -122, 123, -89, -22, -128},{93, 106, -99, 10, 5, 37, -32, 25, -40},{-21, -118, -96, -103, -26, 52, -80, -98, -12},{-87, -15, -108, -72, 43, -69, 98, 94, -63},{93, -123, 43, 93, 98, 22, 122, -19, -101},{32, 77, 52, 120, -71, 62, -104, -46, -91},{77, 2, -61, -63, 44, 52, -42, 100, -33},{17, 70, -67, 82, 35, -62, -2, 0, -91},{-108, -5, 18, -81, -101, -33, 100, -109, 24},{34, -85, 107, 71, 120, -19, -117, -70, -103},{63, 16, 125, -97, -95, 67, -36, 115, -26},{31, -15, 103, 68, 5, -30, -42, 53, -3},{53, 25, 16, -50, -69, 59, -71, -125, 52},{38, -114, 110, 64, 77, -2, 61, 108, 31},{1, -55, 18, 103, 104, -124, 78, 44, 9},{-80, -126, -66, 45, 55, 87, -67, -123, -109},{121, -66, -106, 45, 101, -92, 27, 37, 113},{-103, -30, 94, 56, 99, -89, -54, 75, -113},{-50, 25, 59, 88, 74, 61, -106, -9, -12},{110, 53, -6, -127, 46, 56, -105, -37, 29},{-69, 118, -62, -84, -113, 37, -118, 71, 8},{-79, -111, -45, -64, -32, 109, 123, -72, 55},{56, -50, -82, -83, -68, 99, 39, -67, 17},{-33, -44, 108, 125, 15, 98, -65, 60, 113},{100, 70, 56, -19, 120, 74, 64, -72, -86},{45, -76, -30, -28, 108, 48, 19, -103, 109},{-10, 64, -86, -120, -96, -1, 116, -99, -114},{87, -36, 74, 72, -63, 17, 1, 46, 9},{-53, -18, 65, -11, -100, 117, 87, 0, 98},{7, -109, 123, -12, 10, 60, 31, 18, 92},{-98, 6, 121, -84, -35, -43, 119, -90, 22},{8, 39, -60, -111, 114, 51, 82, -25, 79},{72, -66, -49, 42, 69, -29, 37, -70, 109},{-31, 89, -1, -67, 119, -123, -74, -93, -29},{12, -102, 9, -94, 34, -80, -25, 51, -94},{-102, 6, 9, 105, -50, 71, -72, 120, 12},{27, 29, 70, 8, 127, 31, -121, -68, 22},{-115, -13, 58, -16, 127, 84, 121, -95, -9},{-87, 8, -86, -53, 34, 48, 84, 11, 126},{27, 68, 118, -89, -33, 20, 110, 104, 19},{13, 111, 79, -92, 124, -62, 94, -20, -63},{50, -27, -29, -87, 14, 107, -44, 89, 14},{-124, 45, -103, -125, -56, 93, 121, -16, -67},{13, -34, -91, -96, 107, -108, 112, -113, -111},{-78, 109, -3, -12, 32, 99, 87, 73, -15},{66, -99, -53, -48, -94, 120, -22, -91, -63},{-57, -98, 49, 4, 44, -113, 41, 76, 122},{62, 60, -118, 79, 111, 119, -52, -29, 23},{-81, -70, -31, 33, 124, -2, 108, -51, 32},{100, 55, 69, -91, 126, 100, 86, 3, 16},{101, -84, -36, 96, 106, -103, 106, 57, -120},{97, -122, -21, -7, -75, 37, 90, 86, 33},{-40, 66, 110, 121, 39, 37, 62, 76, 36},{34, 35, -89, -78, 8, -45, 15, -24, -66},{40, -46, 119, 48, -76, 125, -101, 45, -77},{64, 7, -119, -31, 95, 76, -48, 88, -13},{117, 23, -65, 25, -71, 98, 64, -20, -21}},{{-108, 123, 83, -46, 35, -90, -55, -45, -38},{-57, -18, -121, -6, -82, 14, 3, 15, -19},{-49, 95, -58, 66, 85, 93, -126, -18, -106},{100, -81, 2, -49, -61, -3, -93, 21, -96},{-55, 94, -13, 35, -91, 97, 42, 31, -113},{-72, -93, 31, 37, -14, -2, 107, -75, -45},{72, -73, 66, 95, -101, 113, -31, -21, -76},{95, 14, 73, 127, 87, 39, -13, -6, 77},{-44, -92, -20, -28, -36, 15, -125, -127, -126},{1, 109, -73, 85, 53, -18, 23, 20, 9},{8, 118, 116, 60, 85, 2, 5, 84, -39},{-84, -57, 83, 121, 28, 119, -26, -128, -45},{117, -125, -43, 119, 4, -62, -82, -39, 119},{28, 112, 12, -90, -8, 2, -102, -76, -41},{29, 57, -85, 118, 102, -13, 74, 95, -113},{65, -59, -113, -107, -69, -110, -22, -78, 22},{44, -31, 112, 35, 125, 96, -81, -93, -39},{49, -66, 13, -120, 91, -57, -76, 81, -83},{39, 27, -116, 54, -35, -46, 69, -14, 13},{87, 92, 63, -19, 8, -96, -35, -85, -98},{-66, -37, -63, 23, -116, -1, -92, -107, -38},{-21, -55, -84, 24, 112, 71, 37, 38, -92},{119, -21, 22, 4, -62, -14, -61, 47, 122},{-28, -115, -90, 2, -53, 1, 67, 98, 13},{-61, -122, 34, 29, -14, 107, 73, -118, 91},{17, 47, 1, 53, 38, 108, -52, -86, -82},{62, -18, 94, 57, 82, 107, 95, -44, -74},{-32, -105, -104, 109, -38, -98, 16, 120, 16},{-5, 65, 27, -41, -46, -54, 88, -120, 113},{69, -44, -101, 115, -110, 9, 81, 75, -37},{60, 42, 47, 114, -118, 71, -118, 120, -95},{-87, 8, -103, 57, -125, 91, -44, -38, -83},{31, -77, -75, 16, 120, 9, 43, 107, 28},{-75, 61, -25, 16, -7, -110, -64, -20, -100},{-121, -10, -108, -88, 31, 28, -62, -39, 32},{-99, 45, 122, -54, -52, -83, 0, 92, -91},{-119, 8, -111, 37, 61, 78, -115, -51, -57},{-97, 13, 51, -69, 20, -86, -48, 61, 73},{108, 127, -94, 12, -100, 80, 7, -26, -100},{52, 102, 121, 90, 112, 1, 107, 21, -66},{57, 34, 11, -128, 65, -103, 52, 125, 45},{94, -51, -22, 39, -71, -23, 74, 70, 5},{26, -51, 108, 54, -127, 82, 47, 91, 66},{-80, 70, -40, -18, -1, 122, 122, 0, 60},{-109, -76, 57, 64, -110, -122, -85, 57, -65},{20, 3, -123, -102, -99, -46, -122, 84, -44},{88, 3, -81, 27, 52, 118, 115, -94, -11},{109, -100, 117, 41, -81, -87, -30, 112, -69},{-24, -101, 117, 40, 47, -8, 45, 73, 22},{-128, 79, -22, -44, 40, 109, 3, -61, 33},{-7, -74, 68, 111, -93, 96, 100, 77, -112},{-114, -81, -128, -55, 24, -101, -66, -64, 74},{55, 109, 20, -51, 109, -29, 55, -63, -117},{36, 69, -50, -58, -66, 4, -118, -83, 40},{106, -110, -11, 122, -96, 36, 122, -23, -68},{-107, 40, -4, 96, -33, -22, -12, 44, -41},{87, -29, 25, 99, -121, -34, -79, -51, 28},{54, -41, 74, -34, -62, 92, 83, -68, 124},{-9, -73, -27, 52, -52, -115, -80, -84, -20},{26, 32, -104, 114, -8, -5, 11, -37, 3},{105, 12, 80, 5, -62, -88, -49, 32, -22},{-85, -13, 38, -89, 107, 93, 13, 31, -86},{26, 79, -42, -121, -22, 119, -97, -36, -17},{27, 103, 74, -98, 80, -42, 110, -43, 25},{-106, 37, -71, 0, 80, 45, -89, 120, 24},{-124, 5, -73, -82, -97, -122, 5, -90, -16},{-4, -58, 76, 107, 97, 51, 53, 127, 3},{-117, 109, 89, 36, -124, -2, 94, 4, -50},{11, 43, -58, -93, 48, 75, -38, 94, 107},{-32, -29, -111, 81, 95, -41, 29, 74, -72},{-47, -1, -73, 84, 11, -91, 45, -81, -87},{-85, -115, 45, -6, 24, -39, 64, 59, -119},{12, -107, 103, -9, -10, -53, 8, -57, -86},{96, 100, 117, -104, -75, -12, -48, -118, 127},{-11, 55, -81, 30, 99, -68, -53, -35, 85},{36, -99, 16, 45, 41, 38, 21, -96, -100},{96, 41, -29, -118, 9, -57, 127, 33, -3},{-12, 113, 7, -13, -26, -66, 34, -124, -95},{95, -48, -2, 52, 116, 28, -60, 34, -59},{106, -73, -26, -122, -105, -113, -23, -95, 24},{49, -95, -71, -82, 21, -85, 53, -120, 17},{115, 43, 22, -107, 10, 102, 19, -66, 90},{-81, 2, -4, -11, -19, 51, 91, -13, 74},{106, 93, 108, 2, 14, -115, 59, 60, 34},{102, -15, 42, -8, -28, -43, -114, -7, 95},{116, -115, -99, 78, -68, 32, -53, 49, -115},{126, 12, 0, 73, -10, -35, 53, 120, 107},{66, 52, 39, -28, 26, -104, -114, -110, -3},{-28, -96, 118, -61, -108, -125, -31, 99, -64},{-127, -82, 113, -114, -84, -2, 14, 117, 116},{108, 42, 109, 87, -20, 33, -1, 80, -69},{23, 95, -50, -108, -61, -18, -117, 6, 3},{-114, 103, -26, -50, 104, 20, -64, 118, 64},{62, 5, 54, 50, -15, -32, 31, -56, 77},{-64, 71, 29, -4, -33, -4, 74, -13, 63},{-72, -2, -58, 59, 13, -83, -95, 91, -106},{53, -101, -116, -10, 89, 17, -84, 12, -126},{12, -85, -53, -39, -20, -110, 119, 104, -15},{-13, 50, 101, -77, 106, -29, -7, 38, 112},{38, 71, 76, 60, -3, 103, 73, 115, 65},{-38, -97, -51, -35, 43, -8, 40, -123, 100},{58, 124, 76, -84, -17, -2, -111, 34, -23},{-12, -101, -113, -27, 66, 86, -79, -2, -45},{-104, -57, -58, 89, 34, -27, -90, 127, -111},{31, 39, -106, 3, -31, -110, -48, 13, 1},{78, 30, -92, -73, -109, -65, -58, -8, -127},{-99, 41, 0, -16, 65, 71, 55, 27, -23},{-100, 65, -24, -83, -32, -113, -61, 100, -15},{-43, -76, 126, 87, -126, 29, 123, -70, 48},{-70, 0, -88, -68, 29, 81, 60, -114, 18},{3, 69, -83, 109, 97, 111, -43, -113, -49},{-27, -46, -77, 86, 40, -25, 84, -1, -22},{-15, -6, 36, -95, 52, -92, -55, 112, 66},{-102, 44, 80, 45, -80, 21, 90, -99, -10},{73, -14, 5, -103, 87, 88, -52, 45, 0},{52, 2, 127, -98, 115, -7, 66, -107, -83},{102, -34, -98, 40, -7, 74, -8, -90, 122},{-115, -128, -105, 4, 74, 10, -119, 99, -31},{97, -81, -113, -31, 99, 17, -32, -127, 4},{89, 67, 25, -121, 42, 120, -91, -46, -15},{111, 75, 23, 106, 88, 23, -127, -36, -31},{11, -26, -60, 109, -57, -12, 124, 41, -41},{13, -119, -39, -111, 99, -100, 43, 106, 70},{35, -113, -103, -108, 126, 100, 43, 104, 60},{-62, 106, -103, 36, -11, -1, 104, -30, 70},{-36, -34, -17, 52, 107, -7, -115, 125, -36},{-87, 40, -58, 112, -53, -43, -119, -33, -45},{109, -118, -68, 41, -52, -90, 66, 112, 27}},{{-63, 89, 126, -120, -75, -36, -9, 105, -56},{112, 118, -59, -52, -96, 109, 18, -112, -72},{103, -103, 23, -69, -122, 33, -9, 47, 109},{29, -14, 94, -72, 51, 55, -74, 59, 108},{19, -77, 86, 91, -93, 76, -96, -16, 108},{-115, -126, 124, -59, 106, -107, 92, -91, -101},{-3, 28, 75, -22, -71, -67, -56, -15, 112},{127, 40, 44, 108, -69, 95, 66, -106, -126},{14, -74, -14, -5, -61, -11, -9, 8, -33},{13, -28, 4, 40, 97, -96, -13, -53, -39},{48, 20, 74, 33, 19, -14, -51, -1, 45},{-84, -63, 67, -82, 80, 121, 33, -53, -68},{-106, 66, 68, -11, -49, -88, 121, 120, -119},{-103, -21, -43, -14, -100, 105, -68, 61, -4},{47, -118, 124, -36, -74, -67, -96, -28, -115},{-103, -123, -40, -42, -101, -101, -102, 16, -22},{-61, 9, -30, -52, 34, 78, 33, -108, 106},{10, -47, 39, -121, -128, 49, -125, -36, 103},{-64, -4, -53, -50, 22, -47, 38, 108, -20},{65, -122, 125, -84, -55, 6, 14, 22, -87},{-36, -73, -67, -58, 66, 14, 109, 73, 14},{30, 76, 107, 5, -116, -25, 81, -38, 125},{-94, -127, 105, 14, 66, 112, 11, 110, -71},{-110, -3, 79, -69, 89, -121, -8, -96, 73},{-121, -115, 18, 21, 44, -34, 0, -79, -22},{104, -126, 69, 101, -92, 70, 79, 51, 8},{63, -66, -9, 120, -48, 116, 72, 11, 77},{79, -124, 109, 24, -117, 123, -86, 32, 39},{8, -95, 88, 114, -119, 91, 55, 110, 127},{-3, 61, 50, -122, -4, 113, -3, -11, -63},{-15, -67, 77, -66, -116, 81, -84, 36, 92},{-89, 78, -4, 78, -42, 29, 38, -56, 38},{1, -128, 21, 1, -3, -46, -77, 3, 79},{-92, -128, -60, -26, -15, 1, -77, 48, 13},{-124, 92, -79, 96, -125, 127, -36, 81, -43},{122, -9, 29, 32, 121, 29, -75, -6, -101},{8, 45, 30, -41, 82, 31, 27, -72, -112},{-100, -21, 64, 41, -17, 28, 90, -49, 31},{89, 43, -16, -82, 37, 104, 75, -58, 97},{-23, -5, -37, 4, -125, -120, -94, -38, 90},{65, 117, -110, 82, -111, -3, 18, 58, 108},{-81, 20, -69, 78, -19, 103, -65, 27, 12},{-89, -25, 82, -120, 80, -50, -29, -44, -47},{-21, -10, 44, -58, -72, 33, -40, -118, 51},{86, 28, -19, 66, 75, -126, 126, 26, -17},{101, 89, -117, -15, -128, -14, -60, -120, -62},{18, -21, 22, 99, 86, -116, 15, -100, -60},{-79, -11, -50, 100, -53, 107, -47, -115, 54},{-45, -117, -48, 67, 112, -87, 78, -30, -87},{-64, 38, -79, 2, -72, 28, -104, -101, -13},{-92, 43, 15, -23, 92, -124, 55, 64, -49},{34, -111, -35, -39, -27, -24, 41, -88, -39},{83, 118, 59, 124, -74, -31, -82, 56, 25},{74, 80, 52, -67, 116, -33, 77, -35, -69},{81, -107, 123, -95, 55, -115, -2, -112, -14},{102, 58, 26, -65, 13, 16, 122, 9, 70},{-37, 55, -2, 116, 2, -50, 41, 63, -62},{-120, 12, 32, -60, -34, 53, -65, -1, -20},{-52, 125, -3, 62, 99, -73, -40, -93, 68},{104, -99, -51, 46, -7, -123, -84, -19, 7},{-6, -106, -58, 61, -97, 83, -35, -29, -79},{-110, 34, 48, -2, 111, 45, 123, 45, 16},{-78, -122, 51, 118, 110, 81, -60, 29, -54},{-55, 73, 55, 80, -60, 78, -106, -127, 109},{105, -34, -48, -102, -16, 114, 74, 110, 97},{-9, 106, 15, -120, -100, 21, 59, -109, 3},{12, -41, -96, 86, 32, 106, 14, -16, -82},{-36, 6, -81, -55, -16, 13, 25, 10, 125},{11, -43, 107, -19, 76, 85, 124, 84, 114},{17, 16, -123, -108, -100, -36, -75, 115, 124},{-97, 1, -20, -51, 93, 114, -4, -90, -30},{-119, 63, 109, -122, -54, -62, 113, 55, -114},{71, 51, 99, 57, -60, -13, 62, -39, 15},{-102, 14, 2, -106, 45, -125, 2, 122, 96},{-12, -10, -122, 87, -1, 69, 68, 5, -112},{-122, -10, 71, -108, -67, -5, 119, 118, 63},{-22, 52, -104, 122, 78, 38, -4, 100, -45},{0, -26, -51, -32, 91, 67, -25, 50, -62},{-84, -10, 71, -68, -4, -66, -124, 16, -5},{-1, 8, -14, -66, 114, -90, -41, 108, 117},{125, -23, 89, -47, 105, -64, 30, -55, -101},{-30, 48, 77, 36, 93, -61, -20, -103, 63},{42, -99, -49, -91, 28, 87, 23, 91, 74},{62, -78, 54, 51, -81, -97, 12, 0, -120},{76, -97, -46, 103, 1, -126, 52, -91, 95},{119, 17, 121, 54, -69, -106, -122, -31, 51},{93, 120, 14, 39, 54, 64, -34, -23, 111},{-3, 118, -16, 6, 66, 15, 88, 42, -112},{90, -34, -75, 58, -42, 71, 51, -116, -126},{73, -110, -29, -4, 112, -36, -118, 23, -110},{74, 117, -4, 58, -13, -14, -86, 121, -76},{57, 81, 94, 73, 43, -67, 126, -27, 19},{69, -104, 31, 72, 98, 50, -85, -34, 34},{7, -23, -71, 26, -77, -81, -106, 109, 34},{8, -105, 27, 60, 80, -20, 27, 25, -105},{88, 24, -3, -21, -35, 21, -118, -91, -9},{60, -47, 86, -34, 88, -65, 24, -14, -14},{71, 8, -32, -23, -112, -9, -124, 77, -56},{-16, -24, 97, 7, -64, -7, -124, 43, 87},{26, 53, 124, -111, -14, -51, 103, 80, -90},{-90, -24, 24, 25, -81, -95, 121, 24, -79},{-16, 28, 126, 56, -116, -26, 26, 20, 38},{-109, 24, -47, 106, -78, -121, 103, -60, -7},{-76, -85, -55, -38, -46, 50, 115, 107, 97},{-108, 100, -6, -59, -44, -106, -60, -115, -93},{42, 39, 55, -47, 58, -49, 34, 37, 2},{41, 12, 70, -94, 64, 113, -20, -101, -61},{-98, -114, -82, 127, -94, -110, -7, -25, -25},{16, 43, -12, 51, -42, -101, -22, 39, 85},{57, -55, -6, -69, 115, -122, -127, -107, 71},{115, 1, 98, -74, 31, 112, -27, 31, -110},{-9, -104, -7, 94, 40, -91, -46, -37, -5},{-19, 69, -94, -61, -1, -21, 61, 58, -34},{68, 60, -12, 11, 47, 117, -19, 101, 21},{-35, -54, -76, -17, 66, -52, 104, 32, 117},{-115, 115, -48, 8, -32, -106, 42, 35, 21},{-106, -31, -49, -12, -91, -117, 104, 48, 58},{94, -99, 32, -13, -6, 106, 39, 105, 44},{115, 81, -51, 104, 95, -64, -71, -25, 32},{-49, -110, -60, 100, -88, 37, -77, 28, 74},{-65, 5, -6, 121, -29, 23, 25, 86, -111},{4, -3, 122, -80, -16, 75, -3, -39, 42},{61, 18, -110, -34, 97, -92, 34, 69, -52},{-57, 120, 104, -111, -73, -19, 11, -79, 80},{-94, 74, 38, -77, -50, -93, -83, -1, 20},{120, 124, 109, 35, 58, -1, 53, -104, -32},{89, 58, -91, -91, -127, -99, -115, -110, -43},{-5, 29, 6, -53, 63, -48, 114, 114, 31}},{{-107, -97, -98, 41, -105, -102, 22, 58, 84},{-107, -17, 108, -11, -56, 38, 26, -19, 39},{56, -5, 57, -115, 118, -42, 19, -63, -107},{99, -77, -121, 2, -55, -90, 32, 114, -66},{59, 9, 120, 15, 30, -24, -4, -108, 48},{-94, 46, -98, 74, -26, 25, 3, -13, 15},{90, -122, 80, 111, 106, -124, 119, -20, -51},{-99, -115, -65, -37, 72, 72, -44, -41, -25},{60, 83, -5, -20, 118, -87, 10, 64, 16},{-93, -61, -125, 50, -99, -118, 3, -115, 116},{7, -124, -32, 84, -95, -19, -109, -3, -75},{92, 81, 13, -61, 13, -32, 62, 121, -42},{103, 4, -106, -9, 39, -38, -5, -38, -9},{5, 93, 4, -7, -28, 8, 89, -72, 42},{-57, -53, -89, -4, -89, 120, -119, -22, 5},{-22, -88, -2, 64, -112, -126, 87, 7, 42},{-79, -126, -124, 40, 7, 97, -83, -128, -59},{53, 90, -3, -33, -95, 72, 6, 29, 112},{-2, 39, -38, -125, -111, 3, 2, 81, 19},{4, 40, -102, -82, 89, -99, -78, 2, 36},{-109, 47, 37, -40, -28, -1, 85, 68, 32},{30, -54, -67, 14, 73, 100, 104, 76, 117},{-21, -50, 71, 126, 83, -17, -103, -127, -55},{-74, -76, 75, 90, -57, -6, -1, 32, 94},{126, -11, 34, 30, -109, 109, 92, 33, 54},{64, 10, 2, 54, 117, 81, -3, 116, 36},{108, -115, 37, -75, -61, 89, -128, -99, -95},{-6, 29, 65, -39, 27, -74, 123, -70, -54},{104, -106, 107, 30, 86, -11, -95, 12, -21},{114, -119, -33, 22, 118, -20, -69, -85, 47},{-107, -84, 76, -74, 38, -23, 119, 127, -123},{-83, 123, -65, -9, 99, -43, -29, 2, -85},{88, 35, 56, -61, 21, 65, 34, -85, 55},{-114, -26, 99, 61, -5, -113, 10, 49, 53},{115, 40, 53, 120, 86, 48, -73, -51, 19},{12, 48, -107, 56, 9, 56, -16, 76, -51},{-79, -17, -8, 105, -3, 95, 76, -69, -38},{91, 69, -116, 16, 56, 52, -59, 49, 10},{117, 104, 88, 9, -11, 8, 30, -83, -111},{-41, 29, 94, 36, 78, -51, -99, 55, 74},{124, 3, -123, -42, -34, 74, -30, 111, 3},{-105, -76, -76, 33, -86, -100, -7, 51, 17},{-126, -47, 62, -109, 40, -37, 113, -51, -86},{-66, -22, 97, -119, -26, -27, -114, 60, 67},{89, -97, 50, -36, -74, 103, 16, 87, -111},{44, -47, 68, -66, -45, -107, 124, -26, 62},{-40, -40, -117, 2, 22, -11, -29, 31, 91},{72, 46, 23, 12, 7, 54, -66, 99, 108},{-91, -13, 68, -74, -97, -107, 122, -35, -24},{-112, -38, 78, 78, 50, -90, 89, -76, 61},{-50, 23, -36, -87, -32, -118, 64, 108, 17},{-9, -86, -12, -29, -48, 103, -89, 6, -121},{-68, 1, -28, 36, 17, 62, -13, -33, -16},{25, -72, 36, -42, 6, -68, 51, 47, 28},{61, -17, 8, -49, 102, 50, 67, -54, -126},{43, -15, 9, 50, 46, -118, -106, -46, 27},{85, 69, 122, -59, -33, -78, 106, 53, 56},{-90, -24, -25, 66, -90, 86, -54, -11, 61},{124, -72, -121, 127, 99, -8, 8, 21, -90},{18, 44, -7, -83, 1, -66, -89, 70, 29},{-39, 48, -45, -111, 86, 59, -8, 24, 97},{-50, 98, -42, -117, 95, 15, -110, 94, -14},{11, -26, -120, 49, 120, 52, -86, -91, -75},{-23, -52, 123, -122, 37, 44, -39, 54, 2},{-107, -82, -101, 118, -4, 125, -51, 8, 92},{92, 26, 58, -50, -91, -96, -42, 87, -104},{-118, -127, -67, -65, -22, 9, -69, -15, -82},{103, 74, 100, -23, 95, -110, 4, 86, 15},{2, -93, -105, -34, 127, 49, -103, -51, 87},{-71, 36, 46, -46, 46, 47, 15, 110, -102},{-103, -87, 11, -57, -112, -43, -84, -7, -75},{-66, 126, -117, 77, 0, -82, 100, 94, -83},{22, 119, -6, -19, -79, -98, -101, 3, 77},{74, -110, 59, 100, -85, 100, -17, -13, 116},{69, 31, -19, 122, 93, -21, -123, 43, 107},{-77, 15, 74, -32, -91, 65, 90, 18, 114},{121, 45, -11, 70, -8, 8, 1, -36, 51},{-27, 76, -90, -39, 17, 69, 70, 11, 35},{-78, 16, -50, -99, 67, 93, 103, -93, -125},{41, 125, 21, 27, 118, -61, -111, 60, 59},{25, -67, -105, -52, 34, 99, -13, 123, -12},{-72, 66, 127, 91, 116, 15, -87, -111, -46},{-121, 121, -11, -118, 34, -13, 31, -67, -23},{98, -50, -90, 29, 103, -29, 53, -76, -122},{24, 39, -127, -115, 95, 67, -116, 59, 55},{28, 100, 73, 110, 107, 66, -28, 117, -28},{87, 21, 33, -64, -9, 112, -26, -107, 87},{74, 74, -117, 80, -30, 50, 81, -17, 18},{21, -4, -51, -52, -104, -79, -107, -122, -99},{87, -22, -110, -69, -63, 39, 93, 2, -97},{77, 104, -76, 36, 50, 126, 48, 2, -32},{-30, -44, 80, 116, 105, -52, -63, -75, -28},{-13, -53, -22, 16, -94, 85, 34, -34, -106},{-54, -69, 24, -23, -120, 1, 29, 44, -77},{27, -36, 54, 123, 63, -118, 75, 51, 115},{-105, 117, -88, -5, -24, -13, 102, 120, 22},{59, 26, 116, 81, 100, -81, -22, -51, -73},{107, 106, 99, -98, 5, -64, 84, 1, 127},{94, -52, 50, 81, -28, 39, 122, 95, -113},{-19, 69, -121, -125, 0, 34, 119, -46, 6},{-90, 60, 84, -35, 39, 62, -63, 69, -60},{1, 26, 69, 0, -8, -111, -78, -54, -11},{90, -60, -43, 105, 49, -102, 113, 53, 27},{19, 44, 109, -103, 83, 41, 109, -80, -48},{44, -15, -107, 112, 114, 47, 53, -14, -88},{70, 37, -14, -68, -1, 54, 17, -24, -25},{43, -39, -100, -58, 108, 73, -77, -122, 28},{92, 115, 76, -84, 31, -66, -62, 15, -80},{113, -60, 35, -103, -117, -56, 11, -57, 71},{-63, 88, -81, 41, 3, 9, 69, 74, -11},{14, 125, -5, -86, 90, -17, 119, -122, -114},{-75, -56, 30, -27, -70, 98, -120, -45, 109},{-48, 95, -76, -105, -96, -116, -57, 73, 16},{80, 15, -38, -59, -99, -41, 65, -56, -79},{-80, -65, -72, -66, -12, 0, 92, 89, 58},{63, 98, -114, 44, -78, 109, 97, -54, -115},{109, 17, 87, -3, -31, -26, 87, 38, 3},{-81, -25, 75, -32, 23, -118, 24, 86, -2},{-103, 50, -40, 83, -15, -70, 97, -98, -20},{78, 127, 54, 92, 108, -57, 51, -22, 40},{-103, -63, -49, 28, -16, 54, -24, 81, -50},{-14, -23, -92, 113, 2, 86, -55, -42, -56},{3, -73, -26, 111, -122, -27, 38, 98, -47},{109, 21, 59, 22, 46, 125, 101, -54, -19},{27, 50, -66, 105, -91, 40, -115, -106, -86},{100, -33, 0, -84, 98, 56, 18, 81, 62},{119, -9, 32, -56, -27, -75, -124, 123, 99},{-127, 96, -83, -18, -5, 96, 45, -27, -123}},{{-43, -14, -101, -1, -42, -6, -128, 2, -36},{56, -108, -83, -10, -117, 37, -106, -44, -118},{-53, -40, -123, -82, -39, 101, -37, 71, -32},{-69, -12, 69, -64, 73, -72, -37, -55, 14},{85, -55, -111, -79, -127, -91, -33, -9, -79},{-124, 13, 5, -114, 88, 93, -109, -122, -74},{120, -31, 125, -40, 29, -14, -98, 93, -69},{-42, -71, 4, 100, -114, 77, 117, -64, 78},{-101, 31, -59, -52, 35, 82, 81, 49, 42},{46, 68, 48, 100, 60, -110, 97, -108, 47},{-45, -78, 12, 15, 8, 69, -109, -19, 84},{97, -30, -108, 47, -3, 51, 117, 73, -42},{71, 26, -121, -14, -56, 75, -94, -84, 7},{-76, -114, 27, 99, -31, 78, -16, 112, -42},{-75, -124, 67, -119, 101, -90, -99, 20, 35},{80, 9, -19, -90, -47, -121, -83, 67, -48},{120, 101, -4, -1, -102, 10, -101, 125, 108},{105, -19, 92, -65, 35, 96, -125, 44, 69},{-87, 74, -38, 76, 26, 99, -71, 65, -76},{-63, 110, 119, 17, 103, 93, -115, -26, 119},{24, 1, 116, 4, -22, -30, -32, 42, -123},{-63, 45, 49, -122, 86, -5, -32, 34, -106},{-60, 92, 87, -8, -99, 69, -16, 46, 44},{-51, 59, -109, -60, -45, 20, -72, 87, 127},{26, -72, 41, 31, -7, -42, -47, -1, -84},{76, 96, 78, 98, -92, 42, 57, 28, 71},{-1, -116, -11, -85, -39, -79, -66, 29, 4},{83, 86, -36, 82, -16, 20, -5, -112, -115},{81, -31, 12, 125, -83, -20, 75, -112, 16},{-10, 73, -83, -67, -56, -71, 51, -12, 19},{100, 50, -80, -24, 5, -122, 68, -41, -9},{-40, 82, 7, -27, 35, 104, 114, 32, -107},{-34, -20, -91, 111, 98, 111, -100, -97, -73},{-43, 82, 43, 104, 54, -34, -103, -97, 99},{-97, 99, -69, 22, -68, -115, -99, 33, 49},{-123, 19, -47, -101, 114, 61, -64, 97, 31},{-81, 125, 63, -25, -46, 17, -110, -69, -56},{-16, -44, -25, -44, -13, -54, 15, -118, 6},{28, -89, -88, -51, -83, 59, 31, -56, 45},{-36, 8, 14, 124, 56, 11, 59, -97, 94},{-52, -79, -103, 20, 34, -19, 123, 118, 96},{-58, 5, 106, 76, -95, -110, 116, -17, -65},{48, -114, 7, -35, -22, -113, 108, -26, 71},{-9, -95, 102, -43, -18, -104, -18, -126, 58},{91, 126, 48, 60, -60, -75, 38, -112, -42},{56, -123, 69, 119, 53, 83, -2, -110, -66},{14, 126, 36, -43, -10, 70, -68, 75, -76},{-44, -70, -74, -114, -107, -76, 62, 81, -8},{115, -8, 9, -55, -80, 14, -113, -88, -61},{98, 38, -43, -96, -76, -44, 69, 10, 74},{11, 70, 21, 63, -102, 79, 117, -88, 101},{-86, 102, 54, 34, 89, -82, -85, -94, -33},{57, -79, 7, 124, -108, -83, -46, -76, -30},{38, 121, 108, -16, 4, 50, -123, -61, 76},{85, -71, 116, 58, -29, 90, -16, -123, 51},{31, -79, 85, 126, 106, -121, 5, 103, -101},{50, -71, -49, -108, 95, -55, -128, -49, 77},{50, -44, -111, -2, -87, -54, -14, 99, 45},{-52, -44, 50, 127, 115, 99, 85, 113, 78},{92, -10, 53, 119, -88, 110, -58, -67, 77},{15, -67, -100, -35, 112, -16, -18, -18, 26},{56, 97, -3, -27, -83, 81, -105, -83, 68},{123, -126, 53, 73, 94, -85, -2, 85, -44},{-20, -101, 17, -71, 43, 78, -43, -120, 62},{69, -10, -83, -33, -82, -114, 93, 19, -69},{46, 42, -24, -13, 37, -22, -88, -18, -56},{-44, 108, -99, 40, -40, -71, -71, 17, 100},{-121, 102, 108, 70, 44, -30, 115, -117, 16},{-127, 104, -93, -68, 23, 77, 37, -118, -13},{-113, -78, 97, -40, 6, 78, -11, -82, -90},{46, -25, 56, 18, -17, 30, -2, -75, -54},{96, -88, -42, -16, -87, -66, 19, -27, 85},{-31, -118, 95, 84, -102, -110, 53, -14, 24},{3, 103, 71, 42, 22, -82, -30, -88, 29},{-128, 39, 82, -53, 7, 122, 33, 120, -93},{95, 11, 9, 53, 108, 19, 20, 64, 45},{38, -10, -97, -65, 121, -121, -122, 35, 29},{-76, -123, 69, 82, -122, -20, 36, -47, 116},{31, 114, 108, 66, 81, -9, -53, 6, -28},{95, -101, -92, 12, 65, 26, 44, -128, 20},{51, -122, -73, -48, -69, -67, -107, -115, -61},{2, 49, 20, -10, -48, 6, -30, -109, -41},{89, -34, 94, -67, -67, 121, -30, 74, 58},{124, -10, 59, 16, -87, 65, 72, -7, 124},{-123, 14, -119, -56, -112, 59, 92, 6, -117},{-30, 104, -98, 57, 66, -3, 23, 127, 58},{16, -31, 4, -53, -34, 122, -122, 110, -93},{71, 54, 28, 68, 59, -85, 77, -125, -69},{8, 95, 66, 20, -63, 42, 50, 123, -20},{-81, 18, -20, 106, -93, 77, -18, -18, -85},{-23, -12, -102, 12, -69, 80, -87, 127, 12},{-44, 77, 15, 15, -43, -17, -47, 105, 48},{124, 28, 43, -24, 75, -66, 84, 53, -31},{34, -92, 79, 77, 13, -61, 103, -103, -2},{56, -62, -2, -60, 22, -53, 83, -90, 32},{-62, -9, 10, 115, -13, -90, 30, 92, 113},{92, 48, 39, -67, -46, 75, -116, -96, -40},{-49, -121, -15, 78, 63, 52, -52, -125, -54},{23, 87, -16, -73, -103, 104, 65, -116, -37},{103, 43, -73, 89, 7, 104, 0, 69, -70},{-53, 81, -38, 35, -95, -30, -108, 111, -95},{72, -69, -91, -109, 82, 124, 3, -119, -107},{-21, 75, -94, 71, 50, 77, 126, 11, -44},{102, -117, -103, -95, -42, 107, -5, 121, -116},{93, -114, 123, 127, 86, -74, -92, 105, -120},{-96, -19, -111, -75, 88, 92, -41, 31, 15},{-92, 30, -102, -7, 4, -90, 18, 37, -4},{-3, -95, -10, 9, 126, 4, 4, 125, -38},{58, -95, -60, 66, -63, 49, 84, -9, 9},{48, 78, -87, -65, 115, 71, -38, -20, -53},{0, 126, 113, 124, -4, -110, -14, -123, -112},{118, 10, -114, -47, -60, -81, 21, -121, -15},{-58, 91, 104, 79, 11, 54, 120, 75, 41},{63, -91, -107, -117, 37, -108, 124, 33, 16},{-114, -108, 21, -98, -118, -97, -84, -37, -28},{-36, 112, -21, 77, -74, -58, 53, -122, 81},{-21, 126, 28, -107, 62, 65, -86, 73, -26},{-66, 69, -120, 78, 83, -100, -28, 113, -90},{3, -98, 2, 103, -6, -14, -46, -57, 41},{24, 124, 47, -22, -25, 45, -122, -4, -21},{72, 39, -76, -82, 101, 121, -74, 52, 76},{-46, -104, 62, -7, 27, 92, 123, 3, -42},{-19, 85, 29, -106, -18, 25, 69, 88, -128},{-13, 94, -3, 94, 38, -92, -109, 85, -119},{-116, -117, 61, 89, -34, 85, 23, 87, -15},{-13, 82, 116, 73, -65, 73, -26, -42, -73},{127, -101, -113, 127, 14, 110, -4, -19, 20},{32, 0, -23, 42, 12, -11, -25, -27, 83}},{{-67, 124, 42, 46, -17, -4, 34, -72, 59},{-21, 30, -111, 35, 29, -83, 50, 29, 59},{32, -103, -88, -75, 58, 40, 30, -28, -75},{-109, 75, 26, 102, -120, 23, 16, 54, -122},{-116, -40, -65, 72, 68, 93, 89, -25, -5},{-122, -103, -104, 66, 58, -79, 106, 111, 107},{19, 13, -49, 72, 33, -101, -30, 7, -93},{121, -104, 90, -128, -92, -78, -65, 108, 118},{-100, 70, -35, 23, 76, -9, 47, 14, -79},{97, -7, -96, 76, -116, 45, -100, 84, -50},{-73, -74, 86, -38, -80, 110, -76, -80, -110},{-25, -17, 127, -35, 11, 69, 59, -93, 17},{-78, 82, -96, -29, 51, 25, 3, 0, 37},{-80, 28, -7, -1, 83, 47, -43, -83, 95},{-61, -30, -113, -43, 73, -2, -44, -90, -118},{-103, 97, -83, 43, -109, 127, 75, -10, 51},{-28, 121, -77, -119, -86, 79, 2, 41, 34},{-79, 126, 79, -111, -63, -79, -96, 22, 122},{31, 107, -95, 41, -124, -126, 86, 47, -106},{85, -6, 12, 8, 94, 6, 59, 103, 48},{10, -23, -39, -84, 27, -41, 124, 44, 24},{-83, 76, -82, -88, -21, -103, -55, -108, -98},{-53, 106, 77, -31, 64, -56, 110, -56, -90},{-12, -124, -114, -92, 14, -9, -3, 59, -110},{84, 55, 62, -20, 100, 11, 26, -116, 118},{52, -43, -117, 82, 33, 117, 31, -126, 53},{103, 112, 126, -114, -28, -126, -100, 8, 16},{19, -123, -53, 38, 89, -126, -28, -59, 103},{111, 96, 115, 102, 20, -55, 113, -26, 106},{102, -123, 108, 28, 109, 93, 26, 123, -63},{28, -105, 74, -84, 42, 79, -8, -48, 41},{-6, 53, 110, -31, 36, 78, -43, 10, -30},{30, -5, 72, 8, -30, 78, -12, 126, 59},{-47, 24, 54, 19, -76, 77, -35, -32, -9},{-84, 88, 72, 85, -45, -3, 68, 52, -95},{18, -119, 44, 117, 39, -89, 61, -81, 9},{11, 36, 7, -58, 117, -97, 124, 8, -45},{73, 101, 52, -63, -110, 12, -119, 103, 95},{6, 43, 20, 39, -66, 29, -45, -77, -59},{-5, 112, -12, -124, -4, -104, 12, 66, -114},{43, 63, 22, 127, 8, -4, 51, 73, 14},{-65, 82, -11, -97, -40, -95, 51, -128, -33},{-48, -45, 18, 21, 78, 2, -118, 83, 126},{-94, -33, 65, -80, -118, 0, 71, -119, -120},{-61, 60, 82, 81, 124, 36, -58, -101, 125},{-25, 78, 125, 70, -98, -48, -40, 52, -97},{91, 62, 114, 89, 96, -47, 26, -111, -37},{-102, 88, -27, -93, -101, -95, 117, 108, -99},{25, -78, -72, 22, 26, -122, 19, -32, -91},{100, 57, 89, -125, 20, 23, 117, -19, -9},{-58, -120, 8, 33, -94, -32, -122, -59, -5},{-88, -70, -25, -59, 84, 26, -2, -22, -76},{4, 126, 20, 41, 98, -51, 2, 101, 97},{-103, 90, -49, 17, -96, -41, -103, 65, -7},{-6, 72, 63, 117, 112, 121, -35, -75, 77},{119, 51, -72, -85, -72, -74, 63, 97, -104},{-115, -28, 125, 110, -3, 87, -67, -114, 119},{20, -88, 56, -114, 34, 0, 77, 23, -16},{70, 116, 38, 20, 107, -39, 76, -106, 17},{-126, 86, -13, -102, 99, 87, -105, 81, -44},{110, -113, -29, 101, 35, 11, 29, 49, -83},{-98, -2, 68, 14, -59, 57, -76, 89, 36},{14, 37, 59, -97, 39, 17, 18, 65, -12},{-23, 88, -59, 62, 70, -44, -95, 43, 120},{44, -56, 41, 89, -26, -88, 29, 117, -19},{-42, -87, -58, 123, 55, 107, 54, 87, 18},{-57, -23, -45, 59, 83, -85, -128, 17, 113},{-43, 50, 28, -51, -34, 100, 118, -73, -53},{-98, 84, -64, 11, -85, -23, 81, -90, -95},{60, 92, 120, -50, -93, -31, 33, 94, -76},{76, 94, 69, 61, -77, -9, -39, 0, 85},{-66, -9, -116, 9, 21, 97, 73, -95, -116},{-78, 114, -78, -45, 47, -114, -53, 125, -79},{45, 31, -113, 97, -21, 109, 39, -87, -95},{-98, 2, 33, 116, 64, -104, -128, -55, 46},{97, -110, 79, 109, -59, 65, -97, 24, -16},{-83, 100, -18, -34, 17, -115, -19, -14, -8},{-37, -103, 33, -4, -72, -92, -99, -84, 100},{-74, -84, -82, 100, -114, -64, 51, 123, 5},{-12, -101, -98, 101, -56, -126, -45, 39, 19},{-32, -108, -123, 88, -17, -97, -6, 107, -41},{30, -119, 3, 2, -65, 47, 48, -93, 61},{113, 86, 57, -10, -54, 84, 20, -81, -100},{22, 2, 67, -87, 98, 88, -81, 59, -57},{-50, -75, -77, 37, 83, -68, -88, -43, -5},{87, -122, 30, 21, 119, -12, -50, -19, 62},{-94, -126, 110, -66, 24, -16, -126, 66, -45},{90, 113, -114, -95, -65, -61, -44, 100, -106},{16, -116, -21, -117, 99, -15, 41, -8, -24},{-99, 70, 86, 92, 104, 88, 74, -89, -16},{-70, -87, -78, 13, -125, -93, 27, -92, -30},{94, -7, -58, 116, -119, -46, -32, -107, -74},{81, 62, 46, -70, 92, -11, -112, 56, -35},{104, 2, 4, -40, 60, 45, 11, -54, 48},{46, 101, 85, -111, 68, -50, -41, 56, -41},{42, -104, -20, 96, 106, -85, 14, -92, -121},{-125, -76, 63, -31, -100, -63, 101, -12, 125},{19, 127, -57, -61, 46, -83, -104, 63, 113},{-26, -106, 41, 62, 64, 66, -86, 32, 44},{-43, -81, 80, -36, -78, -124, -101, 19, -96},{-36, -7, 20, -38, -116, 20, 33, -49, -62},{78, -24, -127, 63, 78, -105, -23, 12, 88},{-85, 55, -8, 87, -116, 39, 39, -23, 90},{43, 4, -19, 75, 97, 102, -33, -69, 114},{115, 92, -62, -75, 43, 42, -74, -22, -8},{-50, 83, -123, -90, 126, 60, 30, 85, 72},{-58, -4, -79, -96, -89, 54, 13, 114, 23},{-12, -46, 82, -26, -59, 46, 40, -5, -39},{-46, 49, 68, 75, 127, 23, 80, -91, 22},{12, 68, -21, -44, -118, 104, 6, -86, -113},{-68, 55, -126, 83, -85, -44, 37, 18, 25},{-45, -70, -108, 45, 13, 70, -15, -40, 69},{-120, -88, 107, 30, 52, 47, -118, -120, 57},{114, 14, 99, -127, 74, 26, -125, 29, 70},{-41, -62, -40, 113, 22, 18, -123, -61, -97},{75, 52, -9, 17, 60, 31, -4, -37, -45},{-85, -27, -36, 100, -41, 106, 71, -40, 53},{-31, -36, -46, -89, 51, 21, -1, 36, -85},{-110, 42, -18, -79, -11, -94, 41, -122, 94},{-56, 2, -71, 28, 45, 30, 120, 17, 117},{98, -40, -50, 23, 58, 42, 106, 97, -35},{-1, -31, -126, 42, -13, 44, -104, 36, -95},{-70, -51, -88, -104, 22, 42, -46, -78, -40},{112, -86, 105, 102, -116, -62, -76, 36, 124},{94, 14, 93, -69, -115, -66, -67, 55, 49},{105, 79, -42, -117, -119, 35, -77, -95, -71},{93, -13, -21, -75, -28, 21, -97, -54, 34},{-31, -2, -58, -35, -36, 84, -70, 23, 97}},{{-7, 85, 24, -86, 62, -25, 0, 73, -16},{-92, 124, 17, -35, 90, -123, 73, -113, -23},{-34, -82, 51, -128, 15, -79, -58, 108, 13},{-102, -89, -92, 123, 32, 121, 19, 74, 56},{122, -53, 1, -22, -17, -2, 124, 76, -40},{-127, 21, -25, -22, 116, 22, -99, 116, -91},{-50, -69, -110, 91, -43, -71, 127, -47, 89},{121, 100, 35, 49, 95, 110, -78, -55, -35},{48, -59, -86, -120, -58, 63, -16, 48, 51},{-122, 77, 40, -85, -101, 99, -67, 118, -72},{-10, 118, 9, -49, 111, -18, 115, 32, -51},{97, 82, 22, -65, 3, 92, -23, 11, -94},{-88, 123, 83, 92, -127, 32, 4, -83, 60},{-25, -22, 50, 31, 97, 40, -87, -80, 23},{23, -93, -73, 100, -123, -118, -6, -60, 13},{-42, 45, -104, -7, 85, -108, -52, 49, -107},{108, -75, -62, 40, 28, 45, -37, -68, 14},{-125, -27, 62, 27, 124, 98, 82, 96, 103},{92, -38, -85, -23, 49, 88, 2, -86, 45},{22, -10, -33, 43, -30, 20, 110, -117, -79},{27, -26, -19, -87, -23, 82, 103, -124, 78},{73, 87, 46, 48, 51, -120, 91, -99, 57},{51, 31, 99, -31, -75, -39, 64, 96, 60},{-44, 78, 71, 5, -23, -83, 114, 18, 22},{68, -6, 27, 18, -61, -14, -64, 116, -91},{-55, 79, -62, -126, 3, 97, 102, 100, -106},{-65, 36, 119, 123, 120, 69, 66, -2, -81},{111, -16, 65, 6, -75, -69, -95, 71, -1},{19, -120, -13, 56, -47, -62, 123, -45, 69},{92, -71, 41, 115, -7, -51, 106, -12, -58},{47, -73, 68, 94, -90, -76, 32, 44, -23},{91, 77, -79, -38, -32, -71, 77, -103, 10},{-112, -108, 93, 85, 112, -105, -1, 99, 16},{76, 77, -124, -110, -3, -69, 86, -37, -30},{-117, 123, -114, -12, 87, 92, 37, -79, -68},{94, 127, -43, -24, -113, -23, -58, 100, -38},{-35, -29, -67, 109, -80, -117, 113, -62, 8},{-83, -103, 99, 15, -92, 95, 29, 24, 54},{-7, -66, 103, 54, -100, 102, -117, 5, 117},{-11, 75, 90, 79, -88, -67, -116, -107, -19},{-105, -122, 48, 31, -77, 73, 3, 66, 109},{-30, -32, 5, -104, 89, 67, 127, 15, 96},{102, 27, -27, 91, -112, -80, 53, 95, -40},{115, 107, -19, -32, -125, -13, -112, 34, 39},{89, -91, -23, 70, 7, 73, -52, 31, 35},{-113, 31, -78, 111, 5, 77, -44, -32, 93},{4, -106, 60, 92, -119, 40, -55, -23, 43},{61, -6, -51, -28, -45, -13, 77, -102, 122},{23, -26, 26, -70, -11, -71, -20, -27, 62},{-70, 57, -98, -105, -66, -76, 84, -102, -67},{-4, -28, 39, -89, -95, -95, -12, 5, -12},{103, -46, 14, 98, 105, 116, -4, -93, -22},{53, 16, 79, -13, 74, 8, 17, 97, 70},{70, 53, 97, -125, -79, -59, 42, -40, -26},{75, 77, 107, -64, 52, -67, 78, 22, -89},{67, -110, -54, -83, 71, 90, 124, -70, 36},{4, 76, 6, -53, 18, -69, -84, 21, -19},{-15, -64, 69, 87, -117, 18, 66, -53, -57},{127, -102, 93, -90, 93, 112, -15, -118, 55},{-53, -122, 114, 112, 10, 62, -10, 85, -48},{49, -127, 101, -98, -14, -91, 100, -55, -79},{-10, -117, -4, 61, -117, 22, 27, -79, -13},{11, 34, -3, -62, 110, 3, -76, 94, -114},{114, -44, 99, -62, -123, 101, -88, -92, -41},{-51, -120, 33, -2, -2, 44, 123, -68, 55},{17, 87, 105, -123, -30, 11, 2, 36, -7},{-122, 89, -41, -108, 75, 43, 119, -114, 49},{92, -74, 85, -76, 3, 93, 85, -126, -37},{1, 125, 23, -71, 14, -18, -94, 19, 80},{45, -106, -11, -89, -100, -50, -2, -80, -103},{-86, -89, -89, 91, -124, -35, 48, -72, 97},{13, -115, 99, 104, 14, 96, 0, 71, -18},{110, 105, -126, 63, 23, -104, -76, 62, -76},{2, -68, -28, 27, -26, 11, 67, -63, 15},{-96, 113, 71, -127, -2, 84, 100, -25, -29},{68, 103, -86, -77, 85, -108, -75, 20, 43},{-51, 72, -23, 1, -54, 37, 101, 102, -116},{-16, 41, -51, -128, 73, -65, 71, 75, 61},{28, 47, -92, 127, -12, -117, -87, 39, 97},{-67, 92, -11, 104, -87, -66, -47, 42, 8},{119, 15, -18, -125, 127, -105, -48, 127, 97},{15, 71, 44, -51, -29, -37, -15, -30, 79},{-3, 11, -10, -34, 73, -46, 83, 49, -5},{-111, -125, -91, 26, 122, 52, -120, 125, 52},{-96, -51, 51, -127, 93, -6, 45, -86, 93},{-120, 27, -65, 88, -104, 75, -50, -10, 20},{33, -54, -59, -100, -37, -56, -62, 117, -62},{118, 126, -65, 42, -98, 13, -34, -97, -22},{88, 76, 20, 54, 84, -81, 117, 44, -56},{64, 123, 62, -44, 28, -120, 26, 56, -28},{98, 122, -39, -91, 113, -41, -28, 27, -11},{113, 121, 20, -37, 82, -32, 111, 8, -75},{-97, -3, 97, -25, -66, 92, -91, 18, -8},{-82, -84, -79, 18, -113, -85, 107, -76, -100},{-61, 24, 56, 56, 10, 49, -51, 101, 3},{45, 85, -117, 98, 116, 9, 68, -37, 71},{32, 0, -39, -103, 46, 6, -54, -64, 21},{-11, -84, 73, 18, -17, -31, -54, -89, 107},{123, -12, 81, -1, -94, 38, 10, -124, 26},{-109, 72, 117, 90, -23, -11, -76, 2, -92},{58, 76, -28, -49, -63, 16, -104, 83, 127},{-7, -99, -89, -27, -103, 27, -74, 24, 61},{92, -94, 66, -10, -74, 10, -21, -112, 115},{96, -60, -11, -124, 126, -63, -23, -51, 3},{121, -27, -42, 121, 95, -12, -96, -60, 13},{59, -6, -91, -7, -42, -57, -69, 76, -3},{69, -73, 14, 57, -105, 82, -82, -100, 81},{-16, 5, -98, 115, -2, 4, -55, -9, -29},{61, 23, 39, -54, -45, -95, -17, 76, -9},{55, -121, -61, -76, 76, -6, 66, 5, 17},{21, 52, 45, -26, -92, -78, 4, -105, 49},{-120, -32, -88, -21, -98, 64, -110, -24, -109},{-77, 88, 95, 42, 15, 102, 109, 67, 50},{-25, 6, -72, 121, -101, 108, 38, 1, -112},{89, -123, -89, 10, -114, 7, 50, -7, 37},{-14, 12, -114, 5, 63, 102, -28, -22, -11},{-54, -41, -72, 125, 63, 62, -75, 56, 89},{-95, -34, -38, -79, -73, -32, -40, 65, -18},{95, -12, 103, 5, 102, -13, 19, -20, -77},{-7, 80, 29, 110, -101, 116, -90, -104, 51},{101, -51, -21, 62, -18, 74, -103, 31, -127},{-7, 119, 67, 103, 86, -73, 78, -37, -99},{-62, 110, 9, -11, -25, -38, -110, -43, -11},{-122, -4, 13, 58, -31, 90, -91, -97, -56},{111, -72, 103, 113, 49, 94, 52, 24, 52},{107, -25, -112, -120, 41, 126, 18, -98, -26},{108, -80, 59, -31, -74, -73, 110, 112, 24},{72, -106, 56, -112, -123, 112, 119, 118, 34}},{{85, 42, -70, 9, 21, 33, 25, 30, -54},{24, -80, -24, 126, -100, 24, 57, -3, 79},{113, -21, 63, 9, -77, 85, -63, -61, 91},{-78, -70, 81, 84, -113, -4, -114, 24, -111},{48, -78, 47, 122, 74, 95, -29, 72, 123},{123, 1, -8, 74, -14, 99, 10, 124, -106},{-33, -67, -39, -70, -17, 19, -116, -61, 34},{8, -46, -69, 25, -126, -19, -55, 124, -73},{-88, -33, 127, -92, -37, 0, 28, -91, 115},{0, 47, 111, 22, -113, -84, 112, -55, 28},{3, -43, 95, -90, 93, -79, -31, -9, -77},{78, 64, -80, -123, 104, 15, -124, -116, 106},{4, 41, -112, -9, -87, 63, -26, 63, 78},{19, 47, -104, -81, -77, -19, -114, -39, -53},{-64, 58, 66, -13, 8, 2, 35, 13, -22},{-77, 17, -9, -99, -107, -96, -83, 13, -55},{109, 115, -120, 59, 6, 56, 83, 53, 107},{-63, 68, -60, 12, -124, 126, -50, -9, 6},{80, -101, -109, -70, -50, 36, 49, -21, 57},{81, 25, -58, -102, 6, -70, -93, -63, 64},{91, -107, -10, 70, -42, -70, -118, 98, -66},{-120, -80, 53, 14, -128, 80, 33, -70, -98},{-59, 108, 10, 126, 61, -93, -59, 88, 41},{-1, 123, 106, -65, 86, 127, 53, 28, -43},{111, 38, -73, -83, 46, -25, 99, -68, -25},{51, 93, 34, 82, -94, 14, -36, -96, -53},{-1, -27, -93, -88, 100, -98, -110, -92, 116},{-110, 89, 16, -25, 73, -74, 31, 118, 100},{-122, 89, -96, -18, 13, 125, -112, -33, -97},{30, 59, -64, 105, -70, 37, -115, -30, 10},{-85, -12, 46, -96, 6, 7, 48, 110, -48},{103, 13, -57, 75, 19, -96, 108, -127, 45},{105, -111, -116, -119, 47, 71, -55, 25, -127},{110, 38, -29, -8, 81, 88, -90, 113, -34},{46, 34, -52, 126, 9, 89, -59, -44, -19},{-26, -64, -18, -109, -86, 0, -96, -77, -81},{103, -4, 72, 105, -22, -18, -52, 99, -64},{-92, -119, -79, 3, 55, 83, 79, 54, -36},{41, 123, 49, -106, -31, 113, 4, -11, -101},{-124, 21, -50, -76, -4, 74, 124, -27, -75},{-21, 50, -104, 43, 86, -95, 92, -39, 89},{48, -87, 15, -116, 82, 10, 61, 104, 108},{47, -20, -31, 74, -15, 118, -103, 37, -14},{99, 33, 88, -104, -116, 10, -80, 55, -32},{-46, 20, 58, -85, -60, 99, 58, -48, 53},{-60, -114, 29, -80, 61, -119, 17, 7, -6},{7, 32, -97, 122, 4, 65, 82, 28, 77},{-36, 77, 5, 60, -97, -103, -10, -54, -35},{-39, -124, 45, -114, -56, 59, 43, -7, -8},{53, -118, -128, -81, 18, 32, -49, 12, -92},{-112, -34, 65, 93, 58, 14, -30, -10, 45},{-5, 109, 119, 88, -58, 123, 6, -43, -61},{-63, -128, 60, 58, 53, 71, 58, 101, -39},{-38, -76, 101, -1, -60, -61, -64, -95, 125},{78, 4, -13, -5, 127, -32, -14, 88, 39},{-19, -34, 124, 48, 31, 124, -19, -39, 50},{-76, -109, 23, 13, -18, 75, -14, 109, -113},{53, -83, -80, 50, 123, 52, -91, -10, 52},{6, 104, 12, -83, -43, 106, -87, -123, 9},{-91, -14, 99, 87, 38, 118, -18, -77, -28},{-71, 37, -47, -56, -38, -2, -7, -116, -7},{-83, -78, 111, 97, 56, 87, -19, 101, -84},{-41, -114, -78, 97, -77, 36, 68, -117, -53},{58, -7, -2, -97, 51, -92, -16, 123, -2},{111, -12, 11, -24, 34, 61, -40, 3, -11},{-81, 113, -38, -36, -56, -24, 14, -87, 27},{-78, 109, 38, -3, 40, -96, 124, 71, 83},{-96, -73, 78, 30, -90, -61, -87, 15, 101},{102, 103, -24, -37, -106, -39, 53, -14, 34},{-99, -128, 75, 57, -77, 57, -33, 48, -31},{-1, 44, -88, -46, 76, -33, -95, -21, 6},{-28, 20, -107, -55, -5, 124, 49, 86, -110},{-117, 12, 5, 45, 41, 5, -8, -30, 56},{-79, 66, -23, 18, -63, -107, 58, 20, 98},{-102, 53, -51, 32, -103, 97, 53, -30, -36},{49, -109, -77, 67, -98, 63, -56, 75, -24},{78, -60, 75, 6, -11, 13, 111, -120, 78},{-123, 66, -30, 103, 92, -105, -76, -4, -80},{-107, -79, 18, -14, 98, 38, 37, 38, 68},{-28, 110, 16, 76, 60, 84, 23, -61, -55},{-92, -78, -47, 115, -73, -108, -43, -98, 112},{-19, -46, -19, 29, -24, 30, -80, 90, 1},{86, -1, -89, 26, 99, -107, -86, 47, 82},{126, -57, -107, -56, -21, -57, 25, -34, -1},{45, 52, 29, 30, -95, 112, -117, 62, -40},{41, 110, -78, -86, 68, 49, -47, -33, 20},{-25, 9, -61, -71, 8, 10, -50, 80, 118},{21, -23, -44, -108, -105, -120, 50, 53, -87},{34, 64, 104, 122, -23, 86, -84, 20, 27},{93, 101, 122, -15, -52, 3, 52, 5, -117},{-65, 83, 91, -75, -23, -59, 9, -3, -36},{18, -81, -111, 59, 81, 81, 35, 75, -70},{-6, 119, 78, -107, 84, 52, -113, -59, -128},{18, 122, 6, 30, -71, -39, -7, -18, 66},{62, 119, -64, -102, 9, -17, -85, -59, -63},{124, 104, -116, -73, -30, -124, -123, -9, 88},{57, 6, -98, 58, -103, -104, -64, 55, -47},{25, -80, 63, -36, 111, 54, 28, -119, -64},{-117, -75, 5, -52, -79, -19, -39, -24, 80},{-35, -18, -57, -75, -89, 78, -45, 97, 103},{-21, -95, 30, 60, 59, 78, -5, -105, 61},{-78, 51, 71, -14, 62, 124, 119, -117, -83},{-28, -28, 22, -76, 65, -124, -4, 118, -85},{-54, -54, -115, -79, 53, -82, 79, -14, 105},{29, 109, -128, -37, -97, 51, -94, 17, -14},{-98, 8, -3, -53, 109, 97, 97, -95, 34},{101, 29, 24, -111, 103, 98, -98, -104, 24},{-52, 103, -118, -74, 5, 119, -74, 96, -105},{106, -126, 40, -36, -96, -79, 89, -21, -98},{58, -51, -65, -36, -78, 93, 116, -61, 68},{87, -31, 93, -17, 46, 68, -7, 100, -55},{-16, -102, -87, 7, -124, -85, -80, -32, -53},{-31, -71, 55, -1, 115, -124, 62, -49, -74},{27, -60, -6, -32, -101, 91, -67, 10, 9},{-127, -125, -19, -53, -13, 8, -12, 123, 12},{32, -85, 109, 107, 12, -90, 34, -117, -102},{38, 73, -23, 93, -27, 45, -41, 69, 72},{-78, -126, -46, 60, -125, -43, -87, -50, 73},{49, 67, 68, -66, -29, 111, -85, -50, -5},{-47, 113, 6, -21, 23, -49, 85, -12, 52},{2, 75, -7, -53, 126, -5, 29, 58, -1},{115, 99, 77, 60, 21, 16, 0, 83, 115},{-17, 126, -62, 106, -49, -77, -16, 59, 74},{63, 16, -65, -12, -110, -118, 109, -35, -120},{-23, 123, 66, 104, 110, 38, 53, 42, -69},{-58, -86, -114, -71, 25, -116, -5, 3, -37},{46, 115, -106, -7, 50, 38, 56, -90, 57},{66, -108, -106, 75, -3, -111, 13, -27, 127}},{{-77, -102, 41, -18, -32, 83, -4, 26, -20},{8, -107, 111, 100, 68, 98, 122, -67, 21},{33, 117, 59, -38, 55, 79, -16, 2, -52},{2, -112, 49, 1, -61, 76, -85, 50, -84},{126, -82, 70, -21, 55, 92, -38, 27, 32},{-67, 21, 93, 82, -74, 82, 13, 16, 9},{-35, -127, -116, 41, 3, -100, -37, -124, -33},{-89, -81, -111, -45, -82, -64, -102, 25, 119},{118, 115, 18, 22, -80, -89, -13, -126, -34},{-59, 16, 110, 78, 109, 111, 90, 22, -14},{118, 113, -9, -42, -104, 38, -25, -20, 84},{39, 6, -19, 30, -4, -31, -80, -110, 17},{-40, 5, 20, 54, 74, -92, 36, 24, -111},{20, -13, 39, -122, -23, 25, -3, 63, 49},{-92, -89, -99, 120, 78, 35, -26, -19, -97},{71, 29, -79, -40, 117, 54, 108, 43, 0},{-112, -48, -103, -95, 100, 12, 73, 106, 117},{-30, -24, 53, -109, 12, 92, -79, 4, 42},{84, 106, -105, 116, 49, 53, -91, -118, 42},{92, 118, -42, -36, -121, 38, -11, -88, 10},{-127, 113, -12, 119, -45, 92, 44, -25, -24},{8, 24, 109, -78, -20, 87, -54, -32, 9},{127, 6, 19, 41, -30, 9, 127, 62, 16},{37, -76, 57, -81, -75, 42, 36, -84, 126},{0, 88, -27, 105, -32, 125, 86, 19, -23},{45, 93, 74, -74, 92, -48, 73, 5, 50},{-45, 5, -16, 99, -86, 36, 28, -38, 90},{-57, 126, -122, -59, -2, 95, 42, -25, -65},{39, -67, 82, -112, 107, 47, 90, -95, 11},{-86, 107, -111, 92, -66, 22, -51, -95, 64},{113, 62, -102, 75, -123, -104, 82, -54, 23},{49, 116, 126, 112, 27, -68, 67, 43, -89},{-14, 6, -56, 126, 48, -77, -113, 13, -15},{37, 90, 19, -27, 75, -47, 0, 23, -42},{24, -23, 32, -81, -102, 20, -82, -118, -81},{-22, 77, 90, 17, -64, -32, 89, -66, -111},{-115, -51, 30, -2, 114, -8, -111, -41, -61},{-30, 87, 90, 56, -16, -61, -40, 31, -35},{108, 77, -24, -101, -73, -75, 118, 72, -11},{-42, 34, 51, -25, 47, -128, -123, -83, 114},{-3, -65, -54, 65, 33, -95, 27, -38, 17},{95, 50, -79, -68, 31, 126, 36, 58, -74},{90, 48, 126, -49, -121, 32, -125, -18, -49},{-125, -12, -3, 118, 113, 60, -64, 50, -35},{-31, -50, 55, 115, -83, -22, -92, -23, -119},{-94, -114, 67, -40, 104, -12, -41, -73, -5},{119, -70, 105, -57, -66, -35, 68, -76, -49},{0, -12, -127, 93, 85, -49, 21, 72, -4},{127, 108, 102, -120, -113, 116, 75, -25, 92},{-65, 62, -109, 58, 54, -50, 36, 125, 12},{-127, 65, 64, -48, -63, -76, -46, -98, -119},{33, 51, 82, -98, 50, 62, -124, 58, 77},{120, 6, -75, 84, 69, 115, 103, 0, 41},{-75, -92, 38, 65, -91, -25, 1, -10, 40},{53, 72, 71, 63, -23, -6, 17, 7, -83},{-49, 11, 103, -99, 3, -19, -46, -41, -77},{-59, -65, 51, 111, -12, 87, 21, -74, 124},{125, 55, -14, 37, -19, -70, -20, -84, 36},{103, 61, -85, -108, -116, 55, 123, -87, -70},{-23, -5, 18, 28, 65, 81, -49, 48, -59},{-90, -59, -5, -94, -62, -77, 21, 104, 32},{79, -44, 76, -13, -69, 9, 31, -49, 21},{-42, -53, 63, 16, 52, -70, -94, -48, 123},{115, 31, 43, -71, 69, 113, 52, 103, -77},{103, -4, -101, 7, -52, -16, -45, 63, 43},{92, -34, 123, -14, 52, -58, -79, -59, 122},{-21, -25, -54, -25, -37, 105, -110, 20, 46},{-125, -56, 21, -73, -80, -110, -46, 55, -34},{66, -117, -99, -18, 103, -4, -23, -39, -80},{47, 10, -11, 41, 118, 93, 115, -35, -72},{92, -17, 76, 10, -13, -108, -97, 42, -60},{-79, 124, 124, 15, 63, -121, 45, -83, 110},{-87, 22, -56, -39, -59, 82, 79, 110, 72},{44, 97, -91, 100, 61, 21, 48, -57, -120},{68, -26, 50, -119, 24, 46, -123, -89, -19},{-116, 84, 26, 122, 125, -80, -62, -41, -11},{-107, -90, -29, 93, 82, -60, -125, 54, -127},{24, -26, -56, 32, -86, 47, -46, -77, -57},{-128, -72, -18, -18, -60, -61, -120, -65, -64},{-71, 1, 23, 46, 22, 61, -110, -12, 15},{-42, -9, -59, -40, -113, 43, 32, 47, 86},{-49, -127, -119, 22, -127, -62, -123, -17, 6},{-56, -8, 69, 8, 49, -57, -96, -33, 93},{93, -15, -47, -19, 72, 72, 50, -96, 87},{-34, 64, 6, -76, -112, 7, -67, 38, 9},{-1, 43, 120, -122, 115, -16, 75, -4, -95},{-110, 28, 1, 112, -7, 114, -63, 102, 58},{-118, 25, 90, 97, 119, 27, -24, -85, 43},{111, -24, -47, -8, 104, 125, -15, 110, 112},{97, 57, -20, -125, 76, -120, 4, 60, 2},{-10, 125, -24, -79, -121, -127, -117, 105, 120},{38, -47, -93, -47, -64, 12, 35, 57, -12},{32, -86, -30, 16, -117, -101, 125, -114, 103},{-123, 18, 35, 7, -119, 33, 112, -70, 40},{113, -59, 17, 106, 108, 98, -115, -67, -93},{25, 96, 92, -115, 0, -122, -17, -111, -111},{11, -114, -96, -14, -109, 50, -106, 27, 59},{55, 11, 117, -33, -4, -69, 113, -26, -89},{83, -12, -28, 118, -115, -59, 82, -101, 69},{88, 10, 86, 106, -107, 100, -118, 8, 120},{60, 30, 19, -8, -43, -98, -19, 52, 26},{40, 37, -127, 79, -7, -11, -76, -17, 2},{-7, -62, 29, -66, -102, -88, -107, -124, -67},{121, -114, 69, 113, 75, -29, 4, -61, 56},{34, 48, -19, -67, -39, -110, -66, -88, 11},{51, -36, 123, -75, 85, -67, 83, -108, -41},{123, -87, -36, -72, -94, -22, 126, -108, -75},{-31, 24, -8, -102, -69, -87, 7, -8, 2},{25, 54, 42, -91, -23, -121, -96, 30, 92},{-35, -15, 112, 52, -20, -103, -112, 37, -68},{-5, 35, -48, 48, -124, 104, -87, -98, -93},{-46, 37, 27, 84, -65, -47, -2, -28, 58},{5, 4, -39, -30, 97, 74, -46, 21, -73},{-20, 38, 92, 40, -95, -1, 120, 81, 3},{96, 122, 34, -124, -52, -57, 31, -96, 6},{113, 31, 106, 43, -92, -18, -124, 6, -49},{79, 89, 101, -122, -59, 11, 98, 109, 44},{-31, 101, -3, 100, 69, -8, 6, 73, 68},{78, -23, 101, -44, -38, 4, -65, -123, 40},{45, -118, -81, 125, 89, -120, 98, 95, -51},{-19, 65, -70, -103, -94, -97, 22, -122, 100},{-114, 13, 46, 83, -37, -105, 56, 47, -15},{-68, 110, -10, 100, 28, 0, -109, 25, -39},{-101, -5, -72, -24, 104, 121, 34, -127, -101},{65, 23, -94, 38, 38, 47, -44, -7, -118},{-21, -79, 57, 92, -19, 40, -46, -47, -60},{83, -27, 93, -84, 0, -40, -27, 105, -64},{-34, 11, -63, -6, -51, 88, 28, 115, -2}},{{-53, -57, 119, -43, 50, -88, -114, 14, 21},{54, 96, 103, 122, 51, -52, 87, 96, 76},{-81, -59, 53, -17, 35, -63, 48, -99, 14},{9, 57, 1, -121, -124, 72, 127, -39, -6},{-89, -24, -120, 61, -98, 104, 36, -103, 28},{112, 112, -4, 60, -96, 65, -14, 15, -28},{51, -64, 2, -63, 73, -69, 66, 80, -64},{10, 79, 25, -124, 119, -127, -116, 52, -96},{116, -40, -71, 16, -56, -87, -116, -124, -55},{77, -10, 89, -78, -87, -103, 52, -22, 98},{111, -84, 50, -81, 54, 2, 73, 58, -7},{74, 70, -83, 106, 59, 5, -93, -53, 77},{-51, -40, 81, 22, -91, -56, -17, -41, -15},{8, -117, 92, -22, 123, -120, -99, -86, 63},{31, 115, -7, -104, 62, -64, -59, 40, 123},{74, 76, -58, 23, -103, 30, -24, 47, 68},{48, -97, -101, -94, 39, -89, 126, -110, -94},{-122, -81, -52, 69, 78, -64, -65, 102, 126},{-1, -85, 38, -6, 117, -14, 64, 12, 11},{-33, 116, -69, -93, 37, -38, -66, 71, -127},{-27, 69, -109, 7, 75, -62, 84, 17, -112},{-108, 80, 118, -110, -49, -95, 56, 73, -106},{-85, 9, 34, 54, 104, 23, 113, -117, -68},{-53, -54, -125, -51, 47, 72, -32, -73, 19},{35, -117, -92, 51, -97, 116, 42, -79, -61},{75, 105, -116, 98, -108, 22, 4, 75, -2},{-101, 60, 10, -41, -120, 84, -38, -43, 3},{-94, 53, 58, 54, -40, 69, 90, -116, 100},{79, 54, -107, -110, 1, 127, -97, -29, -109},{53, 104, 94, -77, -125, 27, 61, -37, 35},{17, 53, 120, -107, 88, 45, 79, 14, -122},{21, -24, -110, -7, -73, 72, 15, -54, -55},{14, -23, 45, 33, -98, 21, 0, -47, 24},{-101, -113, 115, 62, 32, 41, 54, 53, 1},{-29, 5, -113, -23, -102, -9, -5, 19, 47},{-61, -94, 121, 13, 48, -30, -70, -46, 0},{79, 82, 81, -25, 109, 96, -37, 43, 1},{-124, -31, -74, 5, 68, 59, 20, -82, 85},{-117, 41, -23, 58, 109, 11, 51, -6, -68},{-107, 52, 14, 21, 3, -32, -25, 106, -51},{-57, -59, 120, 72, -55, -39, 127, 78, -99},{58, -30, -53, 16, -18, 117, 121, -88, 98},{4, 92, -36, 64, 113, -112, -50, 7, 19},{46, 110, -3, 123, -75, 67, 115, 126, -116},{-52, 125, 91, -22, 55, -67, 53, -57, 43},{42, -64, 84, 12, 69, 48, 104, 5, 33},{120, 84, -88, 11, 2, -106, -119, -2, -52},{76, -15, -54, 88, 62, -57, 51, -88, 126},{113, 93, -58, 28, 8, 6, -16, -108, -53},{-96, 125, 81, 66, 117, 37, 106, 1, -89},{-127, 10, 37, -51, -42, -105, 23, -82, 85},{94, 98, 125, 92, 83, 90, -94, -17, -30},{41, 96, -9, 116, -128, -12, 69, 66, -23},{-22, 45, 106, 18, 46, -12, -73, 123, 74},{-50, 18, 121, -93, -16, 91, -96, -52, 46},{123, -17, -99, -35, -104, 125, 84, -116, 126},{-56, 82, 64, 50, -68, -19, 28, 78, -101},{-111, -122, -106, 91, -44, 40, 84, -8, -104},{47, 24, -27, -35, 19, 84, -5, 113, 108},{-8, 69, 120, -10, -114, 74, -73, 64, -121},{36, -36, 85, 64, -19, 91, 86, -55, -80},{-1, -99, 40, 23, 77, -64, 124, -86, 84},{80, 37, 69, 60, -98, 10, 53, 20, 24},{-1, 75, -40, 6, -16, 53, -36, -80, -94},{-73, -122, -21, -25, 5, 9, -113, -99, -42},{-48, -103, 0, -92, 106, -90, 105, 38, -60},{-13, -37, 88, -116, 91, 36, -28, -31, -108},{-103, 61, -60, -68, 117, -54, 39, -36, 80},{-80, -20, 109, 6, 60, -122, -121, 96, 112},{-83, 73, 23, -15, -68, 114, -55, -56, 77},{109, 45, -81, -127, 70, 108, -59, -126, 97},{16, 42, -66, -32, 90, 42, -51, -31, -26},{-45, -24, -58, -60, 21, -113, 91, -122, -53},{77, -49, 20, 27, -67, -63, 74, -66, -121},{54, 4, -118, 24, -108, 52, 86, -12, 14},{0, 65, 111, 102, -108, -41, -84, -40, 108},{-69, -77, 114, 6, -127, -62, -102, 28, -1},{-37, -26, 61, -29, -100, -63, -19, 52, -43},{-95, 10, 73, 47, -118, 10, 31, 112, 31},{118, -100, 119, 99, -41, -85, 85, 94, -84},{-105, 120, 72, 22, -44, -82, -44, 55, -54},{21, -92, 127, 107, -59, 9, 52, 116, 20},{-65, 19, 4, 94, 10, 33, 85, -19, 120},{-128, -62, 86, -84, -38, 79, 116, 112, -93},{-94, -60, 90, -19, 90, 126, -20, 69, -61},{117, -7, -73, 9, 56, 75, -114, 22, -43},{47, -20, 66, 39, -20, -124, -2, 25, -34},{-51, 13, -49, -16, 48, 19, -54, -99, -19},{-56, 9, -78, 11, -2, 44, 66, -120, -28},{13, -106, 123, 98, 69, -25, 36, -20, 83},{41, 106, -20, -121, -73, 122, -42, 39, 42},{106, 113, 71, -41, -71, -48, 10, 68, 78},{-74, 7, 86, 26, -108, 108, 21, 119, 49},{124, 27, -98, 80, -60, -120, -68, -52, -64},{-74, 34, 103, 96, 12, 89, 39, 100, -110},{119, -18, 87, 70, 36, -34, 28, -66, -14},{9, 84, -23, -70, 80, -123, -40, 32, -55},{-31, 93, 21, 33, -109, -72, 8, 116, 68},{-31, 27, 40, -12, 19, -106, -53, -39, 58},{41, 117, 121, -101, -2, 77, 5, 57, 29},{10, -111, -66, 83, -14, -101, -23, -109, -82},{33, 28, -94, -27, 125, 62, -114, -15, -47},{-92, 60, 42, 95, -27, 31, 88, 1, -98},{37, -122, 87, -62, 16, 104, 0, -29, -37},{27, 76, -18, 74, -19, -118, 108, 83, -120},{42, 97, -7, 123, -123, -74, 37, 100, 27},{-59, 60, -100, -29, -31, -94, -70, 36, 50},{-94, -92, -106, -3, 64, 98, 108, 10, -48},{118, -10, -93, 126, -95, -124, -8, -100, -119},{46, 66, 110, -55, -121, 42, -26, -22, -116},{8, 36, 48, -69, 70, 84, -47, -60, 20},{-77, -80, -98, 3, -90, 21, 38, -91, 54},{42, 29, 82, 52, -53, 20, 34, 20, 27},{-52, 122, -123, -40, 3, 41, -120, 62, -16},{93, -113, 52, -15, -62, 100, 16, 70, -118},{-91, -20, -81, 91, -105, 76, 45, 75, -105},{-62, -19, 44, 93, 57, 38, 99, -110, -87},{12, -102, 103, 124, 119, 118, 48, -23, -71},{20, 121, 127, 31, -98, -21, 78, 121, 2},{27, 38, -51, 50, 104, 58, -34, 70, -12},{-123, 41, 6, -82, -75, 32, -106, -78, 24},{-116, 98, -127, -59, -9, 122, -60, -106, -104},{48, 100, -111, -78, -1, 55, 0, -78, 32},{-70, 16, -26, 46, 21, -113, -76, 68, -60},{85, 90, -10, -19, 102, -39, -18, -84, 80},{-24, -16, 102, 0, -96, 74, 17, -45, -54},{-56, 83, -4, 104, -115, -116, -50, 60, 34},{-35, 112, -26, 34, 69, -64, -104, -78, -90}},{{-15, 32, -46, -63, -120, 67, -89, 8, 99},{114, -103, -74, -68, -30, -119, 56, -54, -105},{68, 25, 83, -26, 118, 67, 76, 24, 9},{-116, 49, 59, -77, -94, -36, 5, -28, -28},{-56, 11, 109, -84, -3, -122, -30, 57, -24},{-20, -15, 51, 3, -74, -52, -42, 28, -62},{-103, -23, 91, 34, -11, 12, -34, 40, 46},{58, -82, -110, -98, -10, 30, -117, 34, -101},{-110, -123, 85, -6, -15, -58, -83, 116, -4},{-7, -54, -103, 60, -29, 2, 23, -122, 119},{-93, -28, 32, 81, -98, 78, 100, -68, -60},{2, -56, 103, 29, -38, 108, -14, 84, -35},{57, -126, -47, -75, -5, 27, -50, -73, 126},{80, 78, -124, 72, 113, -24, -24, 67, 6},{-74, 39, 67, -6, -87, -117, -31, 70, -27},{-51, -71, -71, 42, 114, -69, 123, -89, 55},{22, -10, 110, 21, -58, 61, 25, -114, 46},{-126, -10, -15, 8, 44, -104, -53, -89, -63},{-42, 8, -120, 59, 86, -63, 117, 0, -77},{-80, -4, -38, 103, -110, 80, 86, 39, -105},{19, -63, -91, -63, -61, 28, 51, 75, -56},{75, -105, -17, -115, -19, 120, -107, -87, 78},{-42, -98, -50, 9, -50, 74, 99, -74, 93},{52, -116, 4, 75, 31, 69, 112, 96, -120},{12, 19, 84, 85, -33, 107, -60, -20, -40},{-68, 1, 1, -118, 87, 31, -39, -32, 110},{-93, -61, -92, -128, 119, -80, 5, 66, 79},{-54, 51, 47, -45, -65, -61, -89, -108, 34},{-110, -39, -114, -22, 21, 15, 108, 32, -26},{11, 121, 70, -7, -100, -119, 29, -99, -127},{77, 34, 67, 28, 108, -10, -52, -65, 54},{15, -26, 74, -79, -8, -93, -65, 99, 57},{78, 79, -39, -76, -38, -46, 122, 84, -18},{-125, -15, 11, -124, -65, -83, 72, 91, -102},{-66, -89, -39, 116, 54, 64, 63, 103, -72},{98, -90, -101, 27, 116, 106, 116, -88, -59},{-58, -94, -103, 53, -90, 10, -64, -86, 73},{-18, 114, 37, 8, -79, 76, 97, -91, 3},{33, 100, -22, 90, 71, 17, 117, -30, 5},{96, -41, 46, -91, 29, 80, -66, -46, 118},{72, 19, -95, 18, -127, -109, -73, 9, -60},{-125, -22, -22, 6, -116, -50, 113, 102, -107},{2, 91, -8, -121, 59, 79, 53, 96, -20},{6, -98, 63, -4, 103, -46, 29, -7, -45},{49, 48, 92, 117, 51, -58, -33, -70, -46},{46, -85, -72, 67, 45, -108, -69, 52, 79},{-118, -22, 48, -9, 112, 78, -74, -20, 53},{8, -118, -82, 91, 59, 94, 55, 48, 18},{125, -112, 76, -48, 62, 119, 8, 1, 36},{28, 61, -40, -20, 71, 66, -100, -66, 50},{106, -12, -97, 32, 124, -87, 78, 87, 100},{45, 14, 20, -65, 12, 36, -117, 92, -30},{-126, -28, 100, 38, -127, 33, 126, -19, -24},{65, 9, 39, -13, -13, -101, 18, -109, -104},{59, 98, 111, 31, 15, -2, -76, 78, -118},{88, 89, 102, -69, 91, -54, -97, 1, -53},{64, -1, 56, -88, -64, -63, 79, 52, 53},{107, -58, 72, -125, -126, 42, 114, 33, -71},{-16, 85, -121, -6, 46, 96, -32, 105, 59},{43, -120, -68, 118, 72, 60, 47, 112, 124},{112, 64, 48, 37, 43, 119, -18, 46, 121},{-104, 32, 26, -46, -111, -16, -39, 11, -98},{-70, 108, -121, 117, 23, -113, -78, 13, 87},{110, -68, 71, 106, -83, 7, 27, 82, -78},{18, -64, 96, 11, -39, 1, -91, 43, 18},{21, -124, -99, 51, -66, -119, 58, -76, 32},{73, -26, -82, 32, -44, -22, -24, -66, 23},{111, 89, -22, -94, -21, 42, -126, 118, -125},{3, -100, 46, -107, 49, 51, -77, -27, 113},{-68, -97, -91, 93, 105, 11, -117, 9, 95},{-11, 113, -98, -115, 97, 119, -9, -125, -29},{-95, -123, -39, -91, 9, -11, 83, 30, -89},{6, 81, 12, -8, -114, 43, 29, 107, 20},{-87, 118, -98, -120, -21, -113, -90, -8, 112},{-98, 111, 115, 1, -111, 121, 90, -74, 2},{-48, -119, -96, -9, 16, 114, -125, -120, -128},{46, 37, 107, -61, 78, 97, -31, 87, -52},{-16, 125, 69, -31, -101, 52, -44, 28, 69},{-51, -9, 123, 79, 71, -123, 112, -66, 21},{98, -63, 29, 98, 111, -62, 77, -78, -111},{46, 19, 104, 122, -124, 101, 63, -27, -127},{-12, 57, 29, -71, -121, -108, -75, 86, 91},{-70, 70, -103, 79, 40, -38, -20, 10, -54},{46, -41, -4, 63, -123, -112, 39, -128, -108},{13, 63, -7, 14, -77, -78, -85, -19, -71},{-64, 34, -112, -101, 92, 86, -75, 43, -1},{15, -105, -119, 89, 69, -31, -42, 5, -26},{-26, -84, -26, -6, 57, -90, 115, -57, -39},{-91, -13, 70, -33, 51, -24, -17, 78, -60},{-59, -125, 111, 68, 19, -122, 78, -20, 76},{-81, 66, -47, 21, -88, -3, 124, 34, -73},{-94, 21, -2, -5, 59, 113, -62, -102, 36},{42, 9, -13, 111, 78, -10, 94, 19, -119},{101, -31, -10, 49, 16, -72, -126, -91, -31},{-1, -95, -125, 54, -61, 25, -75, 63, -44},{-90, -127, -18, 75, 43, 119, -66, 26, 69},{52, -7, -40, 62, -34, 57, -76, -113, -55},{-20, -111, -17, 77, 16, 16, 81, -57, 84},{-22, -4, 19, 62, 34, 20, -84, -19, -65},{-93, 43, 90, 104, -32, -45, -63, -98, 49},{122, -46, 64, -60, 62, 81, 51, 12, -31},{-61, -35, 40, -105, 71, -92, 42, 5, 71},{-66, 49, -76, -2, 84, 96, -40, 60, -64},{43, 125, -34, -36, 120, 48, -100, -68, -18},{109, 111, 122, -50, -78, -41, 119, -54, -98},{-101, 116, 35, 98, -77, -44, -105, 49, -88},{119, -119, 101, -73, 52, 98, 21, -112, 90},{-59, -84, -106, 51, -103, -123, 46, -25, -72},{-123, -34, 2, -92, -6, -10, 71, -36, 41},{-100, -13, -38, -60, -22, -29, -87, 33, -105},{-116, -74, -89, 102, -5, -45, 125, -81, -20},{-126, 93, 84, -70, 98, -78, 60, -122, 44},{-77, 78, -119, 92, 106, -4, -73, -82, 103},{26, -40, 8, 50, -28, 63, 89, -54, -70},{-83, -57, -23, 25, -54, -58, -19, 4, -87},{32, -63, -81, -52, -12, 125, -43, -48, 103},{82, 7, -106, 57, -94, -18, -63, 84, 82},{-128, 45, -100, -69, 90, -28, 36, -12, 46},{107, 97, -78, -108, 1, -13, -61, 78, 103},{-63, -93, -72, -88, 117, 63, -66, 46, 97},{44, 112, 53, -2, 112, -29, 27, -85, -67},{127, 80, 49, 45, 59, 19, 95, 79, -108},{-45, -110, 98, -70, -45, -122, -14, -4, 123},{-78, 58, 42, -109, -25, 26, 73, 101, 10},{-84, 0, 54, -23, -1, 6, -101, -84, -63},{46, -116, -112, 66, -33, -94, 37, 25, -10},{43, -116, 114, 38, -66, 44, -48, -47, -109},{106, -102, 121, -11, -58, -7, -85, 48, 121}},{{49, 75, -91, 114, -7, -79, -126, -69, 16},{-92, 96, -86, 26, 11, -74, 12, -78, -12},{-71, 2, 69, -52, -19, 96, -59, 98, -90},{63, -115, 86, 56, 62, 33, 93, 48, -102},{-113, 50, -42, 31, 86, -74, 73, -15, 66},{127, 125, 116, -13, -74, -10, -71, 3, 99},{-103, 72, 69, -65, 7, 82, -106, -65, 16},{55, -99, -64, 82, -84, 114, -88, 75, 73},{-34, 21, -70, -96, 20, -73, -108, -120, -18},{11, -63, 113, -18, -38, 57, -76, 25, -63},{-122, 47, 0, 23, -25, 29, 87, -71, 73},{74, -31, 21, 19, 63, -86, 77, 96, 62},{-124, 116, 70, -14, -1, -121, -29, 110, -31},{-99, -94, 123, -34, -88, 42, 94, 63, -111},{-4, 23, -54, -59, -31, 43, 90, 116, -21},{-124, 65, -53, 67, 69, -65, 9, -72, 63},{17, 27, 45, 114, 56, 79, 109, -106, 119},{24, 117, 55, 41, -15, -50, 116, 54, 47},{31, 17, 35, -118, 21, -28, -43, -40, -87},{21, 98, -31, -44, -13, 125, -127, -27, 53},{80, -45, 76, 71, 107, 65, -2, 20, -78},{76, 8, 104, -5, -88, -7, -98, -78, -113},{2, 8, -25, 44, -99, -55, -115, -15, 60},{-118, -14, -94, 64, -62, -11, 12, -119, -32},{-51, 8, 116, -1, -44, -3, -25, 80, 37},{97, 110, 87, 112, -15, -33, -41, -99, -4},{33, -86, 109, -35, -75, -33, -1, 117, 33},{116, 1, 43, -44, 78, -77, -55, -51, 7},{70, 52, -41, -21, 21, -58, -62, 5, 55},{34, 93, 84, -98, -2, 126, -116, 91, -77},{-21, -37, -88, -115, -49, 41, 56, 36, -9},{107, 109, 68, -14, 51, -7, 74, -98, -114},{-112, -32, 20, 71, -126, -15, 27, -95, 111},{25, -83, 74, 77, 24, -91, 117, 37, -11},{31, -35, -103, -106, -56, -122, 91, 59, 57},{-44, 5, 87, -30, 21, -73, 118, -36, -70},{-25, 119, -37, -42, 16, 8, -95, -35, -96},{-58, -45, 70, 59, 114, -93, 84, -120, -20},{90, 99, -89, 19, -73, 44, -22, 26, -63},{34, 16, 29, 92, 120, 20, -73, -50, -92},{63, -17, 2, 95, 54, 85, 37, -15, 71},{73, -58, 79, -75, -96, 51, -36, 52, 106},{-120, -98, 4, -55, 64, -107, 102, 28, -115},{-6, 83, -37, 30, 18, 75, -96, -14, 1},{117, -105, 114, 60, 96, -72, 12, -107, -39},{-65, -15, -115, -87, -7, -85, 46, 66, 108},{67, 40, 8, 80, -94, -36, -85, 65, 110},{118, 97, -32, -9, 87, -8, -22, 19, -40},{34, -97, -18, 123, -34, 95, -120, 8, -39},{-76, -74, -101, -96, 121, 68, 40, 73, 102},{-124, 116, 39, 115, 107, 9, -45, -30, -32},{75, 76, 115, -92, -17, -109, 18, -22, -15},{-15, -13, 121, 74, 39, -81, 102, 71, -88},{42, -17, 113, 16, -12, 102, -72, -25, 81},{65, 58, -77, -95, 6, -128, -108, 42, -17},{-89, -68, 89, 25, 45, -52, 18, -8, 115},{66, -34, 58, 106, -120, -86, 92, 24, 30},{66, 80, -123, 19, 17, 63, 70, 50, -59},{70, 71, 111, -75, 110, -85, -113, 7, 89},{-37, -102, -47, -49, 92, 47, -119, 70, 55},{-77, 34, -49, 81, -28, -96, 86, 119, 49},{22, 62, -28, 91, 4, -85, 75, 58, -103},{118, 73, 33, 79, -92, 59, -96, -13, 23},{79, -3, -35, 6, 48, -128, 86, 2, -28},{118, -40, -36, 39, 110, -102, -117, 74, 30},{-74, 21, -40, -48, 11, -95, 113, -37, -58},{44, -5, 57, -61, -53, -74, 32, 81, 103},{32, 39, -23, -123, 29, 65, -31, -59, 48},{-5, -48, -6, -103, 7, -113, -14, 87, 26},{19, 72, 117, 89, -12, -15, 19, 55, 60},{73, -41, 13, 48, 120, -75, -103, 125, 82},{91, -34, -105, 11, 89, -24, -123, 114, 111},{-108, -28, 70, 46, 120, 14, 36, 81, -126},{-107, -28, 57, 81, -82, -112, -34, 94, -120},{19, 120, -123, -26, 83, -29, -3, -34, -68},{101, -29, -81, 84, -9, 19, 26, -91, 11},{-88, 73, -35, -86, 94, 65, 99, 47, 111},{116, -114, 78, 124, 33, 70, -126, -121, 25},{-27, 5, 119, 34, -22, -38, 81, -65, 81},{-28, 89, 118, 112, -126, 64, -51, -84, 30},{-114, -112, -50, 126, -124, -36, 76, -128, 125},{18, -126, -123, -85, -24, 10, -94, -118, 116},{-4, 91, -77, -51, -65, -115, -61, -81, -113},{-125, -4, -69, 34, 11, -53, 112, 9, -49},{-52, -43, -48, -55, 103, -46, -50, -110, 58},{88, -76, 68, 77, 48, 31, -128, 125, 95},{-115, -64, -114, -100, -60, 11, -40, 102, -106},{35, 86, 31, 115, -94, 116, -61, -21, 91},{21, 58, 109, -48, 18, -95, -108, -33, 81},{52, -32, 78, 19, -19, -114, 33, 10, -46},{-84, 98, -72, -62, 5, -114, 97, -8, -80},{85, 59, 28, 48, -47, -42, 29, 33, 104},{62, 53, -56, 15, -23, 40, -35, 124, -107},{-20, 30, 31, 62, 74, 1, 119, -115, -121},{-123, 110, -1, -74, 68, -69, 82, -12, 12},{-88, -110, -83, -112, 80, 98, -40, -32, -52},{-128, 61, -56, -106, -87, 102, 53, 104, 49},{-73, 95, 62, -66, 100, 44, 61, -102, -16},{120, 108, 101, 4, -108, 119, 49, -91, 71},{20, -3, -89, 96, -2, 101, -88, 20, -114},{-113, -55, 118, 64, 0, 85, -2, 62, 58},{-86, -4, 84, 27, -12, 65, 0, 121, 85},{-9, 42, 122, -66, -66, -8, -26, -98, 118},{-53, -57, 10, -39, -42, 83, -48, -106, -44},{-91, 20, -110, 95, 62, 14, 52, -39, -125},{-11, 89, 124, -54, -48, 38, -59, 15, 101},{61, 117, -125, 51, -64, -54, -67, 25, 32},{-112, 105, 54, -28, -113, -54, -9, 110, -119},{-123, 34, -30, -120, -105, -68, -124, -30, 12},{43, 39, -101, 16, -28, -112, 19, -105, -48},{94, -44, 106, -2, -28, 83, -75, 73, 98},{-1, -64, 81, 8, -59, -13, 107, -50, 11},{-89, -46, 109, 51, 125, 20, 79, 13, 120},{95, -95, -113, -80, 127, -29, -102, -3, 71},{109, 50, 16, 80, -78, 80, 33, 58, -106},{-108, 37, -28, 31, 76, 54, 12, 0, 52},{-96, -49, -63, -104, -82, -30, -89, -34, -31},{10, -8, 95, -46, -26, 17, 98, -74, 67},{51, 87, -2, 73, 107, -93, -83, 11, 112},{99, -105, -16, 23, -72, 63, 89, -48, 109},{-69, -8, -52, 29, -126, 68, -4, -44, -86},{-115, -73, -32, 81, 106, -73, -49, 51, -93},{-14, 96, 46, -30, 67, 69, 82, -37, 125},{17, -76, -50, -1, -17, 70, 75, -116, 72},{15, 8, -99, 58, 22, -44, -102, -25, -66},{-46, 54, 113, -11, -88, 81, -93, 11, 20},{104, -35, 111, 102, 111, -93, -76, -18, 19},{122, -71, 31, 66, 72, -88, 95, 2, 62}},{{-77, 29, -91, -15, 111, 91, -30, -28, -125},{-77, 7, 14, 72, -17, 108, 55, -43, 91},{91, 9, -55, -18, 3, 2, -115, -58, -54},{-75, -91, 77, 115, -39, -22, -104, 74, -39},{115, -83, 61, 119, -32, -60, 5, -88, 51},{-15, 96, -119, -52, 59, 18, 21, -87, -106},{-105, -74, -36, -30, -20, 1, -81, -33, 90},{25, -8, 37, 114, -21, 82, 47, -30, -78},{115, 104, -37, 38, -39, -69, 47, 38, 118},{-62, -69, -97, -40, -45, -43, 52, 53, 65},{-75, 100, -95, -112, -3, 25, 53, -17, -124},{7, -98, -25, 57, -111, -49, -108, 55, 40},{-49, -25, -50, -59, 41, 10, -28, -127, 93},{58, 53, 18, -5, 106, -10, 28, 122, 115},{-75, 47, -30, -70, -74, 0, 33, 112, 17},{112, -124, -56, 24, -44, 47, 103, 25, -40},{-15, 126, -39, -50, 56, -114, 96, -77, 121},{-42, 80, 115, -55, -123, 35, 43, -65, 89},{-85, 96, 73, 60, 80, 78, -124, -23, -94},{52, -48, 59, -116, 65, 57, -26, -113, -15},{-12, 111, 37, -19, -59, -11, -31, 14, -6},{-124, -71, 58, 93, -28, 26, 39, -96, -21},{-11, -92, 84, 23, 88, -92, -46, 101, 101},{-116, -53, 116, -3, 63, 99, -94, -83, -88},{23, 14, 54, -110, 18, 111, 76, -17, -45},{-26, -106, -13, 81, 11, 23, 37, -94, -16},{73, 